/* Generated by Edge Impulse
 *
 * Permission is hereby granted, free of charge, to any person obtaining a copy
 * of this software and associated documentation files (the "Software"), to deal
 * in the Software without restriction, including without limitation the rights
 * to use, copy, modify, merge, publish, distribute, sublicense, and/or sell
 * copies of the Software, and to permit persons to whom the Software is
 * furnished to do so, subject to the following conditions:
 *
 * The above copyright notice and this permission notice shall be included in
 * all copies or substantial portions of the Software.
 *
 * THE SOFTWARE IS PROVIDED "AS IS", WITHOUT WARRANTY OF ANY KIND, EXPRESS OR
 * IMPLIED, INCLUDING BUT NOT LIMITED TO THE WARRANTIES OF MERCHANTABILITY,
 * FITNESS FOR A PARTICULAR PURPOSE AND NONINFRINGEMENT. IN NO EVENT SHALL THE
 * AUTHORS OR COPYRIGHT HOLDERS BE LIABLE FOR ANY CLAIM, DAMAGES OR OTHER
 * LIABILITY, WHETHER IN AN ACTION OF CONTRACT, TORT OR OTHERWISE, ARISING FROM,
 * OUT OF OR IN CONNECTION WITH THE SOFTWARE OR THE USE OR OTHER DEALINGS IN THE
 * SOFTWARE.
 */
// Generated on: 24.03.2023 15:34:20

#include <stdio.h>
#include <stdlib.h>
#include "edge-impulse-sdk/tensorflow/lite/c/builtin_op_data.h"
#include "edge-impulse-sdk/tensorflow/lite/c/common.h"
#include "edge-impulse-sdk/tensorflow/lite/micro/micro_mutable_op_resolver.h"
#include "edge-impulse-sdk/porting/ei_classifier_porting.h"

#if EI_CLASSIFIER_PRINT_STATE
#if defined(__cplusplus) && EI_C_LINKAGE == 1
extern "C" {
    extern void ei_printf(const char *format, ...);
}
#else
extern void ei_printf(const char *format, ...);
#endif
#endif

#if defined __GNUC__
#define ALIGN(X) __attribute__((aligned(X)))
#elif defined _MSC_VER
#define ALIGN(X) __declspec(align(X))
#elif defined __TASKING__
#define ALIGN(X) __align(X)
#endif

#ifndef EI_MAX_SCRATCH_BUFFER_COUNT
#define EI_MAX_SCRATCH_BUFFER_COUNT 4
#endif // EI_MAX_SCRATCH_BUFFER_COUNT

#ifndef EI_MAX_OVERFLOW_BUFFER_COUNT
#define EI_MAX_OVERFLOW_BUFFER_COUNT 10
#endif // EI_MAX_OVERFLOW_BUFFER_COUNT

using namespace tflite;
using namespace tflite::ops;
using namespace tflite::ops::micro;

namespace {

constexpr int kTensorArenaSize = 1408;

#if defined(EI_CLASSIFIER_ALLOCATION_STATIC)
uint8_t tensor_arena[kTensorArenaSize] ALIGN(16);
#elif defined(EI_CLASSIFIER_ALLOCATION_STATIC_HIMAX)
#pragma Bss(".tensor_arena")
uint8_t tensor_arena[kTensorArenaSize] ALIGN(16);
#pragma Bss()
#elif defined(EI_CLASSIFIER_ALLOCATION_STATIC_HIMAX_GNU)
uint8_t tensor_arena[kTensorArenaSize] ALIGN(16) __attribute__((section(".tensor_arena")));
#else
#define EI_CLASSIFIER_ALLOCATION_HEAP 1
uint8_t* tensor_arena = NULL;
#endif

static uint8_t* tensor_boundary;
static uint8_t* current_location;

template <int SZ, class T> struct TfArray {
  int sz; T elem[SZ];
};
enum used_operators_e {
  OP_FULLY_CONNECTED, OP_SOFTMAX,  OP_LAST
};
struct TensorInfo_t { // subset of TfLiteTensor used for initialization from constant memory
  TfLiteAllocationType allocation_type;
  void* data;
  TfLiteIntArray* dims;
  size_t bytes;
};
struct NodeInfo_t { // subset of TfLiteNode used for initialization from constant memory
  struct TfLiteIntArray* inputs;
  struct TfLiteIntArray* outputs;
  void* builtin_data;
  used_operators_e used_op_index;
};

TfLiteContext ctx{};
TfLiteTensor tflTensors[11];
TfLiteEvalTensor tflEvalTensors[11];
TfLiteRegistration registrations[OP_LAST];
TfLiteNode tflNodes[4];

const TfArray<2, int> tensor_dimension0 = { 2, { 1,201 } };
const ALIGN(16) float tensor_data1[4] = { -0.010734828189015388, 0.0017530675977468491, -0.00091113691451027989, 0.01522420160472393, };
const TfArray<1, int> tensor_dimension1 = { 1, { 4 } };
const ALIGN(16) float tensor_data2[50] = { -0.004962272010743618, 0.0067527135834097862, 0.0037864218465983868, -0.0091403862461447716, 0.0072426595725119114, 0.01023421436548233, 0, -0.0067325877025723457, -0.0045851152390241623, 0, -0.005746736191213131, -0.0058044223114848137, -0.020013105124235153, 0.00016571376181673259, 0, 0.0039189248345792294, -0.0070820539258420467, 0.0047637955285608768, -0.0002700832556001842, -0.0023142504505813122, 0.017047116532921791, 0, 0.0054238177835941315, 0, -0.0046619437634944916, 0.00099602912086993456, 0, 0.029350144788622856, -0.0052317036315798759, -0.0071218013763427734, -0.01082563865929842, -0.0030633159913122654, 0.0049332622438669205, -0.0089444611221551895, -0.0096985399723052979, 0.010461927391588688, -0.0054574203677475452, 0, -0.00053131580352783203, 0.0099224084988236427, 0.017530478537082672, 0.007422308437526226, 0.0078815687447786331, -0.00059069972485303879, 0, -0.0019210620084777474, 0.0015015467070043087, -0.0051315473392605782, 0, -0.0042750840075314045, };
const TfArray<1, int> tensor_dimension2 = { 1, { 50 } };
const ALIGN(16) float tensor_data3[100] = { -6.1582548369187862e-05, -0.00094340933719649911, -0.0003082781913690269, -0.0025617012288421392, -0.0011382873635739088, -0.0033589685335755348, 0.015718506649136543, -0.007405430544167757, -0.0045055397786200047, 0, 0, -0.010121050290763378, 0.0078835096210241318, -0.00092376541579142213, -0.0040075234137475491, 0.0063814055174589157, 0, 0.0003032809472642839, 0.017751565203070641, 0, -0.0040099024772644043, -0.00079579843441024423, 0.018124235793948174, 0.003400030080229044, -0.0087229236960411072, 0.008342311717569828, -0.0034039292950183153, -0.009978368878364563, -0.001191021641716361, -0.01022094301879406, 0, -0.0071267387829720974, 0.0053254039958119392, -0.0072852303273975849, -0.0089514069259166718, 0.0053399563767015934, 0.0030668473336845636, 0.011147147975862026, 0.0084028467535972595, 0.00034821551525965333, 0, 0, -0.0033335841726511717, 0, 0.019864756613969803, 0.0068002967163920403, -0.0066107884049415588, -0.0040216362103819847, -0.0056293769739568233, 0, 0.041010752320289612, 0, -0.0033512837253510952, -0.0047574792988598347, 0.0019758841954171658, 0, 0.0053251404315233231, 0, 0.0024225115776062012, 0.0037763270083814859, 0.0080800037831068039, 0, -0.013924477621912956, -0.0020820472855120897, -0.006350221112370491, 0.0065825055353343487, 0.00012309990415815264, 0, 0.0083503229543566704, 0.0039544887840747833, 0, -0.0029989161994308233, 0, -0.00064493285026401281, -0.0090091181918978691, -0.0020358480978757143, -0.013455227948725224, 0.02919447235763073, 0.00034957373281940818, 0.0052130757831037045, 0.0080476822331547737, -0.0065970211289823055, 0, 0.00075707683572545648, -0.0079180672764778137, -0.0025609845761209726, -0.0044371280819177628, 0.012172358110547066, -0.0053588366135954857, -0.01012150477617979, 0.0038687682244926691, 0.0073273070156574249, -0.0083186356350779533, 0.0061418307013809681, -0.0064052492380142212, 0, 0, -0.011852479539811611, 0.018585676327347755, -0.0032108707819133997, };
const TfArray<1, int> tensor_dimension3 = { 1, { 100 } };
const ALIGN(16) float tensor_data4[100*201] = { 
  -0.10827172547578812, 0.0098194573074579239, 0.12223716825246811, 0.13565452396869659, 0.11979131400585175, -0.083374202251434326, -0.088988468050956726, -0.058308746665716171, 0.094230517745018005, 0.040536116808652878, 0.066349700093269348, 0.026503236964344978, 0.015087055042386055, -0.03869958221912384, 0.11715854704380035, 0.12769773602485657, 0.089024446904659271, 0.03478173166513443, 0.10896972566843033, -0.046850945800542831, -0.13578410446643829, -0.11280207335948944, 0.022757753729820251, 0.0055321473628282547, 0.10572950541973114, -0.13159379363059998, 0.11900334805250168, -0.046857472509145737, 0.094990454614162445, 0.13113470375537872, 0.088218323886394501, 0.099707186222076416, -0.033411081880331039, -0.13181284070014954, -0.012295253574848175, -0.090633630752563477, 0.075427837669849396, -0.11751486361026764, 0.12102299928665161, 0.078238539397716522, -0.030678762122988701, -0.033966504037380219, 0.042811594903469086, -0.032186076045036316, 0.0042633796110749245, -0.089612655341625214, -0.060446050018072128, 0.015660235658288002, -0.060392878949642181, 0.12670032680034637, -0.11477071046829224, 0.0059473621658980846, 0.059365767985582352, 0.1257367879152298, 0.096678659319877625, -0.10947494953870773, -0.094253651797771454, 0.13226060569286346, 0.057503987103700638, 0.091384664177894592, -0.13561995327472687, -0.026285706087946892, 0.011675599031150341, -0.00063713884446769953, 0.11971886456012726, 0.048095762729644775, 0.09040234237909317, 0.10532292723655701, 0.078221186995506287, -0.031581830233335495, 0.042184732854366302, -0.011795465834438801, 0.03363683819770813, 0.0013401191681623459, -0.13805195689201355, 0.13360905647277832, -0.098936483263969421, -0.086152970790863037, -0.0080605633556842804, -0.10123307257890701, -0.076792553067207336, 0.12784466147422791, -0.11927312612533569, -0.061733618378639221, -0.044931996613740921, 0.13723777234554291, -0.099388033151626587, -0.044140737503767014, -0.0053578387014567852, 0.08290427178144455, -0.1370396763086319, -0.0038027777336537838, 0.10857497155666351, -0.13935230672359467, -0.071446605026721954, -0.014718265272676945, 0.043662182986736298, -0.029221290722489357, 0.014975575730204582, -0.0028808652423322201, 0.1330430656671524, 0.13524727523326874, -0.039186317473649979, -0.0045324033126235008, 0.11700491607189178, -0.13844838738441467, 0.11540595442056656, -0.12899905443191528, 0.090649634599685669, 0.046974115073680878, -0.1338287889957428, 0.13665333390235901, 0.10864250361919403, -0.098004274070262909, 0.081951797008514404, 0.046621788293123245, 0.085980437695980072, -0.060334835201501846, 0.039340205490589142, -0.03754979744553566, -0.11032450199127197, 0.0035298725124448538, 0.11013361811637878, -0.0013635953655466437, 0.12998121976852417, -0.051329366862773895, 0.050406631082296371, -0.0047890166752040386, -0.082902625203132629, 0.078235432505607605, 0.1021961122751236, -0.045935068279504776, -0.066423863172531128, -0.13610774278640747, -0.12672525644302368, -0.10521500557661057, -0.057573750615119934, -0.054914165288209915, -0.10316184163093567, -0.060124747455120087, 0.10788657516241074, 0.033807698637247086, -0.051713049411773682, -0.13039226830005646, 0.057100981473922729, -0.11924967914819717, 0.086463145911693573, 0.027357427403330803, -0.10447747260332108, 0.050467245280742645, -0.0036760761868208647, -0.013064946047961712, -0.0098508084192872047, 0.0088992724195122719, -0.057230584323406219, -0.0156263317912817, 0.016015509143471718, 0.11819803714752197, -0.13219135999679565, -0.0055581568740308285, 0.030836470425128937, -0.075073868036270142, 0.13664485514163971, 0.046971216797828674, 0.074852928519248962, -0.12620489299297333, -0.082591071724891663, -0.010421561077237129, -0.12229730188846588, -0.06811823695898056, -0.012105923146009445, -0.034635443240404129, 0.0047246268950402737, 0.018884515389800072, 0.017499390989542007, -0.10785030573606491, -0.065845668315887451, -0.089587651193141937, -0.0084135187789797783, 0.075100652873516083, 0.011141852475702763, -0.01746852695941925, 0.13881385326385498, -0.046526391059160233, 0.067900866270065308, 0.13054920732975006, -0.12759751081466675, -0.017558008432388306, 0.035574276000261307, -0.13029487431049347, -0.086549259722232819, 0.11654040962457657, 0.03673037514090538, 0.025086021050810814, -0.0048492122441530228, -0.13539418578147888, -0.091400787234306335, -0.076481916010379791, 0.11075817048549652, 0.092922978103160858, 0.020552307367324829, 
  0.02630716934800148, 0.13508065044879913, 0.09564373642206192, -0.054849922657012939, -0.010183610953390598, -0.075500734150409698, 0.11420948803424835, 0.12647083401679993, -0.065986089408397675, -0.12557739019393921, 0.092195592820644379, -0.021070633083581924, 0.12199939042329788, -0.06701245903968811, -0.13697196543216705, 0.018024880439043045, 0.10857070982456207, -0.016319034621119499, 0.11749494820833206, 0.12192443758249283, -0.013076944276690483, 0.12404762953519821, -0.066511727869510651, -0.11181498318910599, 0.068343214690685272, -0.12271376699209213, 0.012321068905293941, 0.09519871324300766, 0.050979234278202057, -0.010222585871815681, 0.050917241722345352, -0.0028486603405326605, 0.0032184829469770193, 0.011113556101918221, 0.13224063813686371, 0.021385613828897476, -0.0094860298559069633, 0.084587693214416504, 0.10534632205963135, -0.035514462739229202, -0.029956337064504623, -0.048303991556167603, -0.070988938212394714, -0.089934468269348145, 0.090661890804767609, 0.11912784725427628, 0.13614043593406677, -0.071672596037387848, 0.061454892158508301, 0.059052959084510803, -0.094538792967796326, -0.13489487767219543, 0.090378232300281525, 0.051931999623775482, 0.089836746454238892, 0.04591776430606842, 0.083942003548145294, -0.129505455493927, 0.09273124486207962, 0.068671822547912598, 0.14478844404220581, 0.081714846193790436, -0.052460961043834686, 0.052514806389808655, 0.074610963463783264, -0.0075634620152413845, 0.13465900719165802, 0.065484195947647095, 0.14020641148090363, -0.094949766993522644, 0.13078369200229645, 0.12795670330524445, 0.045054532587528229, -0.12081502377986908, 0.023786777630448341, -0.066795520484447479, -0.11508293449878693, 0.041682463139295578, -0.044914718717336655, 0.048162385821342468, -0.010861259885132313, -0.10356588661670685, 0.033905696123838425, -0.06144670769572258, -0.017270350828766823, -0.023004166781902313, 0.020064081996679306, -0.0018216345924884081, 0.10487993061542511, -0.089199110865592957, -0.058999843895435333, -0.061033070087432861, 0.059477578848600388, -0.071770697832107544, -0.10490576922893524, -0.03461233526468277, 0.022817255929112434, -0.027047978714108467, -0.10815415531396866, -0.14004258811473846, 0.11668124794960022, 0.019140822812914848, -0.039151228964328766, 0.062046896666288376, 0.11144664138555527, 0.048270773142576218, 0.13441428542137146, -0.11232893913984299, 0.12155638635158539, 0.14141534268856049, 0.10710018873214722, 0.10032810270786285, -0.025256382301449776, 0.1088363379240036, -0.11052588373422623, 0.12270937114953995, 0.079503603279590607, 0.016805293038487434, -0.028146291151642799, -0.065259836614131927, 0.031325075775384903, 0.020954927429556847, 0.057928912341594696, -0.10846986621618271, 0.081621170043945312, 0.044972792267799377, -0.03845147043466568, -0.0036446135491132736, 0.021099716424942017, -0.10917817056179047, -0.020364221185445786, 0.024346062913537025, -0.087448082864284515, 0.14524751901626587, 0.076008081436157227, -0.026702113449573517, -0.10562258958816528, -0.019483422860503197, 0.092045105993747711, 0.034598026424646378, 0.11945696175098419, -0.11562495678663254, -0.073598071932792664, 0.054471444338560104, -0.10568301379680634, -0.13245281577110291, -0.11951898783445358, -0.018470864742994308, -0.054433856159448624, -0.050596211105585098, -0.039941545575857162, 0.050104212015867233, 0.11698166280984879, 0.0739096999168396, 0.021305106580257416, -0.084957189857959747, 0.1188105121254921, -0.00056751479860395193, 0.016473788768053055, 0.0032997545786201954, 0.010166759602725506, -0.11225675046443939, -0.11464712023735046, 0.051713891327381134, 0.13312256336212158, 0.0059721688739955425, 0.0023238831199705601, 0.12881536781787872, -0.064779594540596008, -0.089580044150352478, 0.059778101742267609, 0.096195347607135773, -0.10195379704236984, 0.084503963589668274, 0.12767624855041504, -0.05871850997209549, -0.11334273219108582, -0.13260789215564728, -0.068409949541091919, 0.11126087605953217, -0.051582846790552139, -0.10543935000896454, 0.07544456422328949, -0.096506401896476746, -0.032582491636276245, 0.13588769733905792, -0.093337863683700562, -0.13013996183872223, -0.13176248967647552, 0.10000143945217133, 0.053508739918470383, 0.025505835190415382, -0.014920040033757687, -0.04320821538567543, 0.099973082542419434, -0.073368050158023834, 0.028394374996423721, 0.12895111739635468, -0.033194173127412796, -0.09122089296579361, 0.093187935650348663, 
  0.0032536906655877829, 0.035408921539783478, -0.035617873072624207, -0.1173894852399826, 0.093746170401573181, 0.12138193100690842, -0.089127436280250549, 0.048144008964300156, 0.11577598750591278, 0.018646612763404846, 0.13536310195922852, 0.07100774347782135, 0.05153685063123703, -0.10268053412437439, 0.10401451587677002, 0.081679925322532654, 0.030794164165854454, 0.13807873427867889, -0.042575519531965256, 0.049231402575969696, -0.099739797413349152, 0.11401289701461792, -0.009135107509791851, 0.020117057487368584, 0.14477655291557312, -0.058012235909700394, 0.068535283207893372, -0.01057671383023262, -0.016983024775981903, -0.11791998147964478, 0.09729236364364624, -0.019676294177770615, 0.011876902543008327, 0.10006145387887955, -0.046952430158853531, 0.024974381551146507, 0.019405461847782135, 0.010490473359823227, 0.0018602004274725914, -0.052275784313678741, 0.12209027260541916, -0.060265883803367615, -0.024609372019767761, -0.12492562085390091, -0.035708792507648468, -0.024706451222300529, -0.12994483113288879, -0.10261372476816177, -0.0075558898970484734, -0.012012407183647156, 0.039838556200265884, -0.073799937963485718, -0.0088862134143710136, -0.039050322026014328, 0.11996147036552429, -0.10460310429334641, 0.027212208136916161, 0.039267044514417648, 0.10441189259290695, 0.11730373650789261, -0.05466490238904953, -0.10245589911937714, 0.09039529412984848, -0.078658372163772583, -0.12136705219745636, -0.026375887915492058, -0.0032563204877078533, 0.004187949001789093, 0.00060541374841704965, -0.014306952245533466, -0.10652096569538116, 0.032038487493991852, 0.073446847498416901, -0.0022494678851217031, 0.080020688474178314, 0.11540333926677704, -0.060759987682104111, -0.078431412577629089, -0.017851106822490692, 0.066375367343425751, 0.063537962734699249, -0.13137784600257874, 0.12098728120326996, 0.010612289421260357, -0.050523150712251663, 0.049472697079181671, 0.032647989690303802, -0.018310697749257088, 0.094971269369125366, 0.14127793908119202, 0.071837283670902252, -0.053766410797834396, 0.10231573879718781, -0.054195970296859741, 0.060238353908061981, -0.024654047563672066, -0.0066185272298753262, -0.11299870163202286, 0.0002996196853928268, -0.083844095468521118, 0.085340417921543121, -0.10617375373840332, 0.04770338162779808, 0.083013787865638733, -0.10699760913848877, 0.11291375011205673, 0.14088788628578186, -0.011965225450694561, -0.061043545603752136, -0.087653860449790955, -5.1421724492684007e-05, -0.10404215008020401, -0.088162317872047424, 0.026932785287499428, -0.065607756376266479, 0.05157032236456871, 0.056572232395410538, -0.12059130519628525, -0.079582847654819489, 0.095105968415737152, -0.034756969660520554, -0.02667653001844883, -0.06182030588388443, 0.070691816508769989, 0.056948177516460419, 0.095334649085998535, 0.075647056102752686, -0.052813354879617691, -0.10386398434638977, -0.14203840494155884, -0.0429045669734478, 0.0024604194331914186, 0.0588345006108284, 0.11163654178380966, 0.021618451923131943, -0.072717182338237762, -0.10514327138662338, 0.059336427599191666, 0.14203798770904541, 0.11406926065683365, 0.11754884570837021, -0.1050325334072113, 0.01284177228808403, -0.13846756517887115, -0.0033762294333428144, -0.13638855516910553, 0.004114130511879921, 0.0186164490878582, -0.011069376021623611, -0.069896452128887177, 0.037030346691608429, 0.092018641531467438, 0.044965431094169617, 0.14350253343582153, 0.013953280635178089, -0.066584907472133636, -0.0040065194480121136, 0.088118724524974823, -0.060574423521757126, -0.087861999869346619, -0.072833217680454254, -0.10913566499948502, -0.044591832906007767, -0.032555956393480301, 0.098373048007488251, 0.03433695062994957, 0.012616385705769062, -0.013782191090285778, 0.11458654701709747, 0.032176412642002106, 0.029104186221957207, 0.0163378044962883, -0.035238280892372131, -0.010967452079057693, -0.10160643607378006, -0.060492087155580521, -0.076925769448280334, -0.075149334967136383, -0.11659454554319382, -0.072648882865905762, 0.018698478117585182, 0.059843610972166061, 0.010134650394320488, 0.091128155589103699, 0.072778522968292236, 0.1369665265083313, 0.085682004690170288, 0.089475683867931366, -0.017176840454339981, -0.0092394836246967316, -0.056799795478582382, 0.086357817053794861, 0.11173444986343384, -0.0049725626595318317, -0.064039014279842377, 0.036068588495254517, -0.010901721194386482, 0.07949347048997879, -0.018325002864003181, 0.11573557555675507, -0.11192445456981659, 
  -0.13898694515228271, 0.043268360197544098, -0.0017926929285749793, -0.071223407983779907, -0.14197063446044922, 0.12563467025756836, -0.0026096811052411795, 0.10193350166082382, 0.005474739708006382, -0.090026788413524628, 0.11518384516239166, -0.083782635629177094, -0.13237006962299347, 0.038353383541107178, 0.062772683799266815, -0.10299520194530487, 0.078672818839550018, 0.073287129402160645, -0.0081615941599011421, -0.11845619976520538, -0.03084523044526577, 0.035097818821668625, 0.056435428559780121, 0.090097799897193909, 0.053333364427089691, -0.10067366063594818, -0.076348282396793365, -0.052628993988037109, 0.035896621644496918, 0.10571318119764328, 0.082847811281681061, -0.034327074885368347, -0.0074601862579584122, -0.031789325177669525, -0.10604581236839294, 0.065261185169219971, 0.11995482444763184, 0.082873426377773285, -0.0023253664840012789, -0.14310635626316071, -0.090163394808769226, 0.048130013048648834, -0.1170327216386795, -0.1362462043762207, -0.013297472149133682, 0.002309189410880208, 0.12551012635231018, 0.018452808260917664, -0.10634556412696838, -0.094501055777072906, -0.064975783228874207, -0.025576336309313774, 0.12977071106433868, 0.11255054175853729, 0.13289275765419006, 0.017338994890451431, -0.00050291558727622032, -0.11831285804510117, -0.070626229047775269, 0.13752982020378113, 0.071337446570396423, -0.026613075286149979, 0.063189707696437836, -0.03716004267334938, -0.14148125052452087, -0.070905029773712158, -0.049701470881700516, -0.0052310586906969547, -0.088534809648990631, -0.066577747464179993, -0.10027343779802322, 0.10907485336065292, 0.002435432281345129, 0.022581703960895538, 0.0082594696432352066, -0.12764266133308411, -0.014513703063130379, -0.03653094545006752, -0.11033358424901962, 0.12809692323207855, -0.089494608342647552, 0.068419367074966431, -0.028224889189004898, 0.093445234000682831, -0.13047032058238983, -0.080730296671390533, -0.043600834906101227, 0.061305597424507141, 0.11497027426958084, -0.0032847533002495766, -0.011216562241315842, 0.11104130744934082, -0.00091732974397018552, -0.053492769598960876, 0.080605760216712952, 0.066378101706504822, -0.070672407746315002, -0.13525407016277313, -0.068378396332263947, -0.047772157937288284, 0.0047287079505622387, 0.062519252300262451, -0.097962841391563416, 0.023734681308269501, -0.058006893843412399, 0.1084151491522789, -0.016397960484027863, -0.10768259316682816, -0.12205458432435989, 0.11681109666824341, 0.13689742982387543, -0.08081381767988205, -0.00011095003719674423, 0.068386822938919067, -0.080958403646945953, -0.023529009893536568, -0.026662001386284828, 0.0016753770178183913, 0.080500580370426178, -0.02165287546813488, 0.0376022569835186, -0.037067592144012451, 0.12034504115581512, -0.099167004227638245, -0.057359587401151657, 0.11688239872455597, -0.095865093171596527, 0.13742451369762421, 0.10466057062149048, 0.12414589524269104, -0.048040013760328293, -0.10204815119504929, -0.038225598633289337, 0.071070350706577301, -0.047306455671787262, 0.091049551963806152, 0.0015997209120541811, 0.039155319333076477, -0.089534305036067963, -0.10143864154815674, -0.016988566145300865, 0.12171274423599243, 0.11783844977617264, -0.014116847887635231, -0.0085345814004540443, -0.069771967828273773, 0.13338391482830048, 0.13781347870826721, 0.068947263062000275, 0.1073547825217247, 0.0045719984918832779, -0.076769009232521057, 0.019004834815859795, -0.055177554488182068, 0.050582289695739746, 0.041412182152271271, 0.098917283117771149, -0.10877007991075516, -0.096795767545700073, 0.097118563950061798, -0.078503631055355072, -0.1216772049665451, -0.028120353817939758, 0.12402796745300293, 0.02583598904311657, 0.05491478368639946, -0.043215043842792511, 0.075851202011108398, -0.054871067404747009, -0.0066050495952367783, -0.020947100594639778, -0.13853120803833008, -0.088850684463977814, 0.022216064855456352, -0.10871446132659912, 0.060125313699245453, -0.092393361032009125, 0.08542187511920929, 0.080860964953899384, 0.076680243015289307, -0.00079058529809117317, 0.043694205582141876, 0.062880381941795349, -0.055186163634061813, 0.05968218669295311, -0.044349629431962967, 0.071098111569881439, -0.068806186318397522, 0.051372401416301727, -0.13808172941207886, 0.10727225989103317, -0.017342163249850273, 0.096055664122104645, -0.017697082832455635, 0.086484253406524658, 0.057698037475347519, -0.12318815290927887, -6.8380650191102177e-05, -0.073241688311100006, 0.09257129579782486, 0.030789909884333611, 
  0.0044722640886902809, 0.11160759627819061, 0.028812708333134651, -0.0072218412533402443, 0.022390721365809441, -0.068139165639877319, 0.0059995157644152641, -0.05826883390545845, 0.054669789969921112, -0.010325711220502853, 0.05321885272860527, -0.028220029547810555, -0.10248464345932007, -0.010872510261833668, -0.059208206832408905, 0.051366139203310013, -0.03169708326458931, -0.0060766655951738358, -0.094758428633213043, -0.0027425468433648348, -0.078714340925216675, 0.023599032312631607, 0.060430876910686493, 0.029323771595954895, -0.084192506968975067, 0.11960448324680328, -0.074756436049938202, -0.1033523827791214, 0.035228181630373001, 0.033017057925462723, -0.075310699641704559, -0.079186111688613892, -0.041116118431091309, 0.02908698283135891, 0.13277316093444824, 0.13562102615833282, 0.0012861202703788877, -0.12718939781188965, -0.065086543560028076, 0.075440362095832825, -0.046657804399728775, -0.10221771150827408, 0.039332877844572067, -0.07386104017496109, 0.032610028982162476, -0.067330971360206604, -0.02632509358227253, 0.044565055519342422, 0.014616903848946095, -9.0338602603878826e-05, 0.078185059130191803, 0.02065570279955864, -0.045394457876682281, -0.065561875700950623, -0.061645802110433578, 0.066284328699111938, -0.1436285674571991, -0.10708142071962357, -0.073242664337158203, 0.083288632333278656, -0.075563237071037292, -0.0530414879322052, -0.11531328409910202, 0.11181876063346863, -0.051855426281690598, 0.089745447039604187, -0.027833692729473114, 0.067297957837581635, 0.010787023231387138, 0.10997454822063446, 0.081579364836215973, -0.032690726220607758, 0.12122485786676407, 0.062012512236833572, 0.10735759884119034, -0.096797548234462738, -0.053514562547206879, -0.036223910748958588, 0.045504320412874222, -0.12840546667575836, -0.010785047896206379, 0.062151119112968445, 0.12701106071472168, -0.075167372822761536, 0.072587043046951294, 0.052450913935899734, 0.085204243659973145, 0.065523251891136169, -0.047914028167724609, 0.049871880561113358, -0.051636658608913422, -0.10056556761264801, -0.098890453577041626, 0.018334852531552315, -0.071745410561561584, -0.025808785110712051, 0.012583574280142784, 0.073239997029304504, -0.05268990620970726, -0.0089818825945258141, -0.1001981645822525, 0.092442780733108521, 0.086859501898288727, -0.11503562331199646, 0.12972496449947357, 0.041955605149269104, 0.05215274915099144, 0.064976058900356293, 0.047040302306413651, 0.077614001929759979, -0.040046948939561844, -0.019077496603131294, 0.13049109280109406, 0.052036352455615997, -0.068366758525371552, 0.014820661395788193, -0.11415156722068787, -0.1341899037361145, -0.028941351920366287, 0.031697139143943787, 0.0029618083499372005, 0.060944322496652603, -0.015380378812551498, 0.084198437631130219, -0.13349351286888123, -0.098872430622577667, 0.10862293839454651, -0.035460110753774643, -0.024498762562870979, -0.094766199588775635, 0.0055714948102831841, 0.0021973829716444016, 0.018165044486522675, 0.11746912449598312, 0.01008610799908638, 0.058077592402696609, -0.023589335381984711, -0.00031334313098341227, 0.035003408789634705, 0.13500621914863586, 0.12399320304393768, 0.035318028181791306, 0.12075947970151901, 0.0029384291265159845, -0.10303118079900742, 0.12442691624164581, -0.12660850584506989, 0.057017292827367783, 0.12269578129053116, -0.14563155174255371, 0.0066157151013612747, 0.06275583803653717, 0.099849797785282135, 0.10831164568662643, 0.035023961216211319, -0.064646661281585693, 0.024773266166448593, -0.086778193712234497, -0.13837718963623047, -0.087502509355545044, -0.026285747066140175, -0.12534713745117188, 0.0041824332438409328, -0.0055899647995829582, -0.046879243105649948, -0.086182929575443268, 0.08899310976266861, 0.046740561723709106, 0.087875150144100189, 0.005029680673032999, -0.043813720345497131, 0.066469036042690277, 0.12595492601394653, 0.0051659890450537205, -0.028604472056031227, 0.1221734881401062, -0.039751354604959488, -0.074936307966709137, 0.10244005173444748, 0.069281116127967834, -0.050736881792545319, 0.060006018728017807, 0.020245946943759918, 0.11685562133789062, -0.074018210172653198, -0.06191243976354599, 0.034718271344900131, -0.057278815656900406, 0.10797572135925293, -0.086260385811328888, -0.070594251155853271, -0.10728754103183746, -0.13705317676067352, 0.0065198056399822235, -0.12753084301948547, -0.12760809063911438, 0.08111216127872467, 0.053749091923236847, -0.11285768449306488, 0.057505160570144653, -0.09470280259847641, 
  0.073668733239173889, 0.052509941160678864, -0.07197076827287674, 0.023508407175540924, -0.069826811552047729, 0.06243450939655304, 0.062355868518352509, 0.085783094167709351, -0.0053618052043020725, 0.087492205202579498, -0.023483477532863617, 0.085633404552936554, -0.029675468802452087, -0.0034358254633843899, -0.13627108931541443, -0.12927427887916565, -0.1251121312379837, 0.13053892552852631, 0.041948538273572922, 0.0047484012320637703, -0.0033399180974811316, -0.080087281763553619, 0.0084626087918877602, -0.081026822328567505, -0.094650082290172577, 0.068931795656681061, -0.052214734256267548, -0.12768805027008057, -0.022581098601222038, 0.12423671782016754, -0.014378026127815247, -0.11185544729232788, 0.025486597791314125, 0.11947564780712128, 0.029429730027914047, 0.11573982983827591, 0.0040805144235491753, 0.10746677964925766, -0.055306058377027512, -0.013533028773963451, -0.11508268862962723, -0.002657625125721097, -0.086208321154117584, -0.11683887243270874, 0.082992188632488251, 0.084702141582965851, 0.0053673712536692619, 0.016367902979254723, 0.13203170895576477, -0.021424528211355209, -0.12243688106536865, 0.088994808495044708, -0.08959139883518219, -0.084896408021450043, -0.044174827635288239, -0.11101372539997101, 0.082719579339027405, 0.032631769776344299, -0.1334192305803299, -0.10897053778171539, -0.14114902913570404, 0.001549048232845962, 0.11574094742536545, -0.12811662256717682, 0.10682246088981628, -0.029022715985774994, -0.089895591139793396, -0.096457824110984802, 0.12261904031038284, -0.023641176521778107, 0.12612579762935638, 0.038588959723711014, -0.06069505587220192, 0.098675824701786041, 0.011539445258677006, 0.081784918904304504, 0.048968568444252014, -0.13604509830474854, -0.12576994299888611, -0.11616067588329315, -0.029573459178209305, -0.0025138771161437035, 0.035725560039281845, -0.078622870147228241, 0.045506700873374939, -0.015150903724133968, 0.1148674339056015, -0.085644178092479706, -0.040138881653547287, -0.081549927592277527, 0.13283586502075195, 0.015088190324604511, -0.11367848515510559, -0.018734246492385864, 0.10885598510503769, 0.12850330770015717, -0.036253463476896286, -0.10669304430484772, 0.088687047362327576, -0.033781353384256363, -0.10920143127441406, -0.061018340289592743, 0.10990342497825623, 0.06931295245885849, -0.03597332164645195, 0.076326534152030945, 0.10325867682695389, 0.078727364540100098, 0.1159108504652977, -0.10897704213857651, -0.059870112687349319, 0.13989710807800293, -0.11951256543397903, 0.069078944623470306, -0.062311507761478424, -0.078421086072921753, 0.10973864048719406, -0.035801459103822708, -0.06471986323595047, 0.022136637941002846, -0.038507618010044098, -0.027421861886978149, 0.016889289021492004, 0.011639473959803581, -0.032251551747322083, -0.13913026452064514, 0.061278060078620911, -0.025711379945278168, 0.026063639670610428, -0.12789386510848999, -0.080573737621307373, 0.093578018248081207, -0.12964740395545959, 0.1347634494304657, -0.0086894994601607323, 0.03279571607708931, -0.13587336242198944, 0.083121366798877716, -0.13798099756240845, -0.059293892234563828, -0.049059454351663589, -0.074843205511569977, -0.026857463642954826, 0.1176145076751709, -0.045960787683725357, 0.027814403176307678, 0.078413225710391998, 0.008092343807220459, 0.11601729691028595, 0.034723293036222458, 0.10654084384441376, -0.023192400112748146, 0.078423172235488892, -0.13836196064949036, -0.1197032555937767, -0.1137634739279747, -0.064655125141143799, -0.0033397641964256763, -0.033632375299930573, 0.10205306112766266, -0.057950649410486221, -0.00081015448085963726, 0.015768131241202354, 0.11995254456996918, 0.11082373559474945, -0.016680765897035599, 0.072249814867973328, 0.10591451823711395, -0.065068677067756653, -0.079775795340538025, -0.10123501718044281, 0.087823942303657532, 0.10656306892633438, 0.019565731287002563, 0.086194604635238647, 0.104117251932621, -0.13281761109828949, 0.013674474321305752, 0.057427365332841873, 0.09172646701335907, -0.13841317594051361, -0.044734388589859009, -0.014554023742675781, -0.089824505150318146, -0.041011068969964981, 0.0085170725360512733, -0.056092187762260437, -0.0015615324955433607, 0.099814154207706451, 0.012422035448253155, -0.087022796273231506, -0.021132295951247215, 0.0033355529885739088, -0.0097776306793093681, 0.0017981820274144411, -0.1105722039937973, -0.11740806698799133, 0.12238261848688126, 0.086208030581474304, -0.018526265397667885, 0.098684944212436676, 
  -0.10934742540121078, 0.032554600387811661, -0.10931769758462906, 0.048585407435894012, 0.041253790259361267, 0.017552491277456284, 0.0745430588722229, -0.048883289098739624, 0.11910428106784821, 0.0045445077121257782, 0.059519451111555099, 0.073482416570186615, 0.062509432435035706, -0.11230598390102386, -0.11317592114210129, -0.070090562105178833, 0.071854546666145325, -0.064553074538707733, -0.039974883198738098, 0.028611378744244576, 0.05565778911113739, -0.10006996989250183, 0.13474820554256439, 0.09233064204454422, 0.10181169211864471, 0.03383176401257515, -0.054425999522209167, 0.10983768850564957, 0.08602537214756012, 0.094946503639221191, -0.018389161676168442, 0.056173671036958694, -0.12643103301525116, -0.065301097929477692, -0.086130134761333466, 0.062713988125324249, 0.12697647511959076, 0.12147063761949539, -0.070416837930679321, 0.12811022996902466, -0.027555147185921669, 0.13074195384979248, -0.090038992464542389, 0.07724037766456604, -0.11757460236549377, -0.084517277777194977, -0.059336800128221512, 0.0069752740673720837, -0.11735425889492035, 0.093796111643314362, -0.017111944034695625, 0.038862217217683792, 0.081481955945491791, 0.13348886370658875, -0.052267972379922867, -0.072412192821502686, 0.10910969227552414, 0.038696072995662689, 0.064860492944717407, 0.003465977730229497, -0.055950004607439041, 0.11674793809652328, -0.037964198738336563, 0.045127671211957932, -0.10321909934282303, 0.1324457973241806, -0.062512412667274475, 0.072950482368469238, 0.031766258180141449, -0.087510570883750916, -0.0098385382443666458, -0.063385009765625, -0.0032803814392536879, 0.029777156189084053, -0.077814623713493347, 0.064362190663814545, -0.10941801220178604, 0.13711868226528168, 0.14582817256450653, -0.10501951724290848, -8.4537881775759161e-05, 0.052024967968463898, -0.058648630976676941, -0.086537346243858337, 0.11841160804033279, -0.12653540074825287, -0.073286361992359161, 0.13938352465629578, 0.022774877026677132, 0.084518179297447205, 0.07883637398481369, -0.0084192464128136635, 0.14723323285579681, -0.13116683065891266, -0.1070333793759346, 0.14623293280601501, 0.092131651937961578, 0.1057233139872551, 0.10534870624542236, 0.010184674523770809, 0.036342456936836243, 0.082103416323661804, -0.11722671240568161, -0.049606546759605408, 0.098582789301872253, -0.059790540486574173, 0.021396372467279434, -0.045480053871870041, 0.14016136527061462, -0.061078254133462906, 0.038976080715656281, -0.05274040624499321, -0.10902117192745209, 0.1376238614320755, -0.064436592161655426, -0.077145226299762726, 0.058043494820594788, 0.065528720617294312, 0.13074260950088501, -0.10759728401899338, -0.12888680398464203, 0.065473675727844238, 0.11995615810155869, -0.12299156188964844, 0.01078362762928009, 0.045022979378700256, 0.12795445322990417, 0.072711795568466187, 0.068253308534622192, 0.12922179698944092, -0.012158443219959736, -0.12931852042675018, -0.051551174372434616, -0.016443492844700813, 0.11001428216695786, -0.031615830957889557, 0.0070071034133434296, 0.023797059431672096, 0.051078863441944122, -0.098227649927139282, -0.029688160866498947, 0.035349871963262558, -0.057922281324863434, -0.040060203522443771, 0.052247844636440277, 0.13121369481086731, 0.042906615883111954, 0.072031371295452118, -0.12835341691970825, 0.023457862436771393, -0.065545029938220978, -0.010225299745798111, 0.12691545486450195, 0.031144561246037483, 0.093257956206798553, -0.047589942812919617, 0.097793102264404297, 0.095136106014251709, -0.03114684484899044, 0.14758773148059845, 0.098669789731502533, -0.035188350826501846, -0.1208665519952774, -0.1112997755408287, -0.020049789920449257, -0.12179657071828842, 0.061266452074050903, -0.10823560506105423, -0.027261765673756599, 0.0087676448747515678, 0.024718273431062698, -0.07069290429353714, 0.082506865262985229, 0.053971696645021439, 0.024006687104701996, 0.083217613399028778, -0.017074013128876686, -0.012388456612825394, 0.050325151532888412, -0.017861926928162575, -0.078085832297801971, -0.10209029912948608, 0.075801245868206024, -0.0071100853383541107, -0.069274850189685822, -0.012789569795131683, 0.073665745556354523, -0.050095360726118088, 0.055657468736171722, 0.04726887121796608, -0.054909050464630127, 0.046912051737308502, 0.046376235783100128, 0.14578461647033691, 0.073402002453804016, 0.00031209018197841942, -0.055058855563402176, 0.13326108455657959, 0.13070091605186462, -0.071937605738639832, 0.020314093679189682, 
  -0.038087744265794754, 0.16593037545681, 0.074479207396507263, -0.024661201983690262, -0.051782827824354172, -0.12506723403930664, -0.12708175182342529, 0.039992012083530426, 0.016085309907793999, 0.10511713474988937, 0.12600845098495483, 0.018345339223742485, -0.019848225638270378, 0.042276386171579361, -0.13667899370193481, 0.064604878425598145, 0.098324991762638092, 0.044596098363399506, -0.12594632804393768, -0.081979036331176758, -0.1264326274394989, 0.04186282679438591, 0.12096357345581055, 0.074063770473003387, 0.029897047206759453, 0.12268297374248505, -0.012181729078292847, -0.084559261798858643, -0.091663762927055359, 0.042062245309352875, -0.13616207242012024, 0.0041342619806528091, 0.056428238749504089, -0.13020564615726471, 0.052074041217565536, -0.034319154918193817, -0.084686808288097382, -0.079217933118343353, -0.0078516369685530663, 0.13843636214733124, -0.018330980092287064, -0.12811027467250824, 0.035566370934247971, -0.012221669778227806, 0.14385987818241119, 0.060756999999284744, -0.0028248063754290342, 0.040199004113674164, -0.14024749398231506, -0.11707227677106857, 0.082033753395080566, 0.0081309052184224129, 0.059683326631784439, -0.078088395297527313, -0.10404559969902039, 0.11492747813463211, 0.12097547203302383, 0.11069963127374649, 0.066310562193393707, 0.039641287177801132, 0.11201544851064682, -0.034770838916301727, -0.042051080614328384, 0.062545329332351685, -0.028551818802952766, 0.05133533850312233, 0.093964651226997375, 0.048444435000419617, -0.10843707621097565, -0.095436818897724152, -0.091033920645713806, -0.098068617284297943, -0.12994717061519623, -0.047109127044677734, -0.0010389392264187336, 0.018412766978144646, -0.052337981760501862, -0.09276435524225235, 0.05960576981306076, 0.060246746987104416, 0.1106967106461525, 0.096392691135406494, -0.020660910755395889, 0.055021230131387711, 0.05325605720281601, 0.13496798276901245, 0.070475764572620392, 0.10125198215246201, -0.12364614009857178, 0.042934950441122055, -0.01581161841750145, 0.070349462330341339, 0.0026707127690315247, -0.12097342312335968, -0.095300532877445221, -0.0011434395564720035, -0.076897941529750824, 0.069789908826351166, 0.13882939517498016, -0.10381632298231125, 0.059749208390712738, -0.018258024007081985, -0.096008777618408203, -0.090448454022407532, -0.10867480933666229, 0.03411044180393219, -0.010283327661454678, -0.061973083764314651, -0.12528146803379059, -0.11241932213306427, 0.042950589209794998, 0.072902925312519073, 0.018361518159508705, -0.11122828722000122, 0.010488319210708141, -0.027272185310721397, 0.064290039241313934, 0.046089429408311844, 0.042440906167030334, 0.0025347515475004911, -0.095116205513477325, -0.11577577888965607, 0.0018023098818957806, -0.11411556601524353, -0.0022608893923461437, -0.0044129081070423126, 0.066065266728401184, 0.10942581295967102, 0.01404275931417942, -0.088226266205310822, 0.037599731236696243, -0.075508154928684235, 0.065244436264038086, -0.066358163952827454, 0.11249125003814697, 0.099797196686267853, -0.021937001496553421, 0.048952188342809677, -0.084839954972267151, -0.063166193664073944, -0.0036076728720217943, -0.019996332004666328, 0.061460323631763458, 0.13547547161579132, 0.13515357673168182, -0.13603830337524414, -0.12702177464962006, -0.084818437695503235, -0.049752146005630493, -0.025634298101067543, 0.07791108638048172, -0.03244457021355629, -0.037050124257802963, 0.0067746024578809738, 0.051435559988021851, 0.03053664043545723, -0.086728125810623169, -0.088928639888763428, 0.053273510187864304, -0.061057709157466888, -0.13488155603408813, -0.06749531626701355, 0.041098609566688538, 0.0041917641647160053, 0.029182806611061096, 0.11986210197210312, 0.13605542480945587, 0.12744154036045074, -0.011229332536458969, -0.059190563857555389, 0.0073011019267141819, 0.08770405501127243, -0.068989075720310211, 0.027986049652099609, 0.015105413272976875, -0.13142494857311249, 0.04286593571305275, -0.079634346067905426, -0.093139275908470154, -0.059374958276748657, -0.039057403802871704, 0.019072914496064186, 0.068678952753543854, 0.05737714096903801, -0.060546617954969406, 0.045170918107032776, -0.12857039272785187, -0.075685843825340271, -0.027084620669484138, 0.067331328988075256, 0.1169375404715538, 0.14839072525501251, 0.028536785393953323, 0.023738255724310875, -0.044109638780355453, -0.11073773354291916, -0.086532734334468842, -0.030047615990042686, 0.14051637053489685, -0.045625220984220505, 0.08823036402463913, 
  0.047651786357164383, 0.070688769221305847, -0.15542323887348175, -0.091311551630496979, -0.019669480621814728, 0.11778149008750916, -0.053127020597457886, 0.034913837909698486, 0.06529708206653595, 0.0033878686372190714, -0.14769852161407471, 0.0027656147722154856, -0.026932086795568466, 0.11994398385286331, 0.047590978443622589, 0.12604090571403503, -0.063567869365215302, -0.014780470170080662, 0.1114247739315033, 0.053669121116399765, 0.1087857261300087, 0.060345485806465149, -0.0043173544108867645, -0.085752695798873901, -0.051304969936609268, -0.097035877406597137, -0.054685130715370178, -0.095774903893470764, 0.056397240608930588, 0.04639727994799614, 0.1109350323677063, 0.10415169596672058, -0.037291828542947769, 0.083549767732620239, -0.075458928942680359, -0.092031404376029968, 0.099707864224910736, 0.015811862424015999, -0.064208671450614929, -0.062907397747039795, 0.08859146386384964, -0.029462661594152451, -0.13604061305522919, 0.072420455515384674, -0.023421630263328552, -0.043516237288713455, 0.12126953154802322, 0.026980003342032433, 0.14140114188194275, -0.056307375431060791, -0.041576150804758072, -0.094712689518928528, -0.007929513230919838, 0.13201181590557098, 0.035665996372699738, 0.10066208243370056, -0.065424740314483643, 0.0017212858656421304, 0.10440493375062943, 0.02851463109254837, -0.11918774992227554, -0.070418313145637512, -0.0075869383290410042, -0.055874977260828018, -0.021364551037549973, -0.11081700772047043, 0.13761419057846069, 0.00012884809984825552, -0.0522758848965168, 0.17954626679420471, 0.078965209424495697, 0.10726401954889297, -0.11190087348222733, 0.02911226823925972, -0.012400442734360695, -0.13427133858203888, 0.12380868196487427, -0.097736380994319916, 0.015999322757124901, -0.042011022567749023, 0.051174566149711609, -0.12469445914030075, 0.046864703297615051, 0.12599270045757294, -0.060556948184967041, -0.056651189923286438, -0.046271711587905884, -0.062029562890529633, 0.040341038256883621, 0.012930835597217083, 0.00052869180217385292, -0.0956912562251091, 0.036694873124361038, -0.047937590628862381, -0.013703029602766037, 0.025677530094981194, -0.066594779491424561, 0.12051992863416672, 0.085537202656269073, -0.10472360998392105, -0.059435121715068817, 0.097657099366188049, -0.10781211405992508, -0.085657693445682526, 0.045832499861717224, 0.11415380239486694, -0.037381120026111603, -0.14624315500259399, 0.071072414517402649, -0.0038839539047330618, -0.096440710127353668, -0.0035851027350872755, -0.065328046679496765, -0.13467802107334137, 0.11992840468883514, 0.012252282351255417, -0.024162011221051216, 0.11274439841508865, -0.075308375060558319, -0.13716790080070496, 0.058952420949935913, 0.049624372273683548, 0.037792522460222244, -0.096186272799968719, 0.022660050541162491, 0.091804154217243195, -0.070465147495269775, -0.043792769312858582, -0.13175198435783386, 0.076246157288551331, 0.042997293174266815, 0.13133464753627777, -0.0289146788418293, 0.077416986227035522, 0.014473800547420979, 0.00024522712919861078, -0.04920891672372818, -0.11492251604795456, -0.030038062483072281, 0.096796445548534393, -0.028367666527628899, 0.049536336213350296, -0.1384911835193634, 0.10172524303197861, 0.084780700504779816, 0.11979345977306366, -0.078701324760913849, 0.028395297005772591, 0.064200185239315033, -0.15094146132469177, -0.12304041534662247, 0.072704598307609558, -0.027953527867794037, -0.029496841132640839, 0.010855325497686863, 0.11076778173446655, 0.13996616005897522, -0.097958192229270935, -0.10948292165994644, 0.089000605046749115, 0.031656559556722641, 0.057714369148015976, 0.047538492828607559, -0.08442649245262146, -0.077395759522914886, -0.016327274963259697, 0.0080302674323320389, 0.090360820293426514, -0.068771481513977051, 0.070193953812122345, -0.006403372623026371, -0.044107213616371155, -0.13945771753787994, 0.05689597874879837, -0.11096722632646561, -0.016077732667326927, 0.1218312680721283, 0.010127789340913296, -0.044043600559234619, -0.11577306687831879, 0.090611398220062256, -0.070776484906673431, 0.053491048514842987, 0.081463374197483063, -0.13546445965766907, -0.089255571365356445, -0.13381929695606232, 0.074318885803222656, -0.045915432274341583, -0.11365554481744766, 0.050980798900127411, -0.026465754956007004, -0.070836953818798065, -0.0042437231168150902, 0.083974622189998627, 0.12720119953155518, 0.083120547235012054, 0.0074417092837393284, 0.13468779623508453, 0.085332311689853668, -0.1450844407081604, 
  -0.0067350119352340698, -0.0064637362957000732, 0.0044758915901184082, -0.059163346886634827, 0.088071137666702271, -0.1035444512963295, -0.10853088647127151, 0.11862465739250183, -0.098595991730690002, -0.10888002812862396, -0.035505734384059906, -0.13284285366535187, -0.079145342111587524, 0.1162073016166687, 0.014697358012199402, 0.0013937801122665405, -0.0016272664070129395, 0.067754894495010376, -0.11737044155597687, -0.024700753390789032, 0.023874536156654358, -0.039884276688098907, -0.098620086908340454, 0.024141877889633179, 0.04799690842628479, -0.0059344768524169922, 0.097832277417182922, 0.13897985219955444, 0.046479091048240662, 0.043039023876190186, 0.069127261638641357, -0.042337149381637573, 0.086458787322044373, -0.12963534891605377, -0.1237720400094986, 0.13784202933311462, -0.12465780973434448, -0.066710002720355988, -0.076061651110649109, -0.077257707715034485, -0.13275310397148132, 0.0689353346824646, -0.10603815317153931, 0.041626483201980591, -0.0089063793420791626, 0.06169283390045166, 0.013554275035858154, 0.08336600661277771, -0.0073079317808151245, -0.023187063634395599, -0.11694806069135666, -0.065268591046333313, -0.13113416731357574, -0.079118885099887848, -0.12351991236209869, -0.099619835615158081, 0.088281765580177307, 0.040122255682945251, 0.069061994552612305, 0.06355169415473938, -0.11550687998533249, -0.027321763336658478, 0.064746841788291931, 0.0090402513742446899, -0.055293798446655273, -0.06929779052734375, -0.017971865832805634, -0.0090795606374740601, -0.016442291438579559, -0.083812057971954346, 0.042709842324256897, -0.13957805931568146, -0.083971679210662842, -0.1223163828253746, 0.072882428765296936, -0.14018656313419342, -0.059178665280342102, 0.091381028294563293, 0.058285757899284363, -0.099022209644317627, 0.06710401177406311, -0.12895788252353668, -0.038943573832511902, -0.014099329710006714, -0.099312737584114075, -0.098586633801460266, 0.11904230713844299, -0.036775305867195129, 0.028087794780731201, 0.014871150255203247, 0.020785093307495117, -0.021462894976139069, -0.034266486763954163, -0.097717627882957458, 0.11315920948982239, -0.010813161730766296, 0.031410247087478638, 0.039111942052841187, 0.038067057728767395, 0.120411217212677, 0.12320718169212341, 0.12962573766708374, 0.12768268585205078, -0.089837998151779175, 0.010183051228523254, 0.078910216689109802, -0.026332490146160126, 0.046948567032814026, -0.018349207937717438, -0.10213535279035568, 0.033344537019729614, -0.10696478933095932, 0.077225297689437866, -0.083429194986820221, 0.11710086464881897, -0.13775822520256042, 0.0058251470327377319, -0.066382549703121185, -0.061737671494483948, -0.11476612836122513, 0.056991070508956909, 0.11437687277793884, 0.055451333522796631, 0.053138837218284607, -0.055732108652591705, -0.096926987171173096, -0.092863678932189941, 0.029030412435531616, 0.12689432501792908, -0.068045623600482941, 0.11564469337463379, 0.1074204295873642, -0.079992935061454773, 0.0057872086763381958, -0.081181988120079041, 0.052780270576477051, -0.070758529007434845, 0.034631878137588501, -0.039666414260864258, -0.10562402009963989, -0.089863240718841553, 0.080530673265457153, -0.092323482036590576, 0.06640152633190155, 0.11954289674758911, -0.0930437371134758, 0.057269126176834106, 0.0017957389354705811, 0.10382242500782013, 0.017893239855766296, 0.12025734782218933, 0.069942474365234375, -0.13479712605476379, 0.064435034990310669, -0.053969323635101318, -0.052920430898666382, -0.08942742645740509, -0.024657666683197021, -0.048305854201316833, 0.0069732666015625, -0.066593267023563385, 0.1351611316204071, 0.079276278614997864, 0.10545504093170166, 0.12690329551696777, 0.062743678689002991, -0.11816660314798355, -0.10953810811042786, 0.084144607186317444, 0.054091483354568481, -0.12738966941833496, -0.12634430825710297, -0.1003565788269043, -0.12007022649049759, -0.11141371726989746, -0.059719197452068329, -0.027116060256958008, 0.11902016401290894, -0.044761039316654205, -0.015967294573783875, 0.066466942429542542, -0.0081855505704879761, -0.11134874820709229, -0.0030996501445770264, -0.13685932755470276, -0.006232038140296936, 0.070719659328460693, -0.11454093456268311, 0.069560319185256958, -0.080787375569343567, -0.062695138156414032, -0.01114170253276825, 0.065786063671112061, 0.0081229358911514282, 0.076178282499313354, 0.13611286878585815, 0.13132798671722412, 0.02933095395565033, -0.033485539257526398, 0.066019400954246521, 0.098228335380554199, 
  -0.11185546219348907, -0.047231383621692657, 0.010477185249328613, -0.10239831358194351, -0.075685955584049225, 0.044478923082351685, 0.13347840309143066, 0.051645636558532715, -0.056134290993213654, 0.089651882648468018, 0.12634330987930298, -0.088909640908241272, -0.078271761536598206, -0.069597147405147552, -0.057662315666675568, -0.065944477915763855, 0.097984164953231812, 0.074899286031723022, 0.093078717589378357, -0.078564614057540894, -0.086179733276367188, 0.044090643525123596, -0.0087335854768753052, -0.055929668247699738, 0.058683738112449646, 0.070629537105560303, -0.061682842671871185, 0.094521775841712952, 0.067008450627326965, 0.013976633548736572, 0.060916364192962646, 0.067585602402687073, 0.070841163396835327, 0.067413762211799622, 0.080743253231048584, 0.080957502126693726, 0.045317098498344421, -0.048271492123603821, 0.13141006231307983, 0.040716111660003662, 0.013519167900085449, -0.067684300243854523, 0.10180853307247162, -0.020656600594520569, 0.0037839412689208984, 0.03184838593006134, 0.053027376532554626, -0.059334449470043182, -0.009059607982635498, 0.033578991889953613, -0.056582964956760406, -0.043120682239532471, -0.021703608334064484, 0.01236000657081604, -0.068563468754291534, 0.11362358927726746, -0.0090263783931732178, 0.036227807402610779, 0.10672435164451599, 0.061934858560562134, 0.031735479831695557, -0.025633238255977631, 0.01808089017868042, -0.079272687435150146, -0.12252575904130936, -0.045399531722068787, -0.10070504248142242, -0.1263398677110672, -0.01497320830821991, 0.051058754324913025, -0.024508610367774963, -0.030656397342681885, 0.11747327446937561, 0.042269155383110046, 0.097100406885147095, 0.10462632775306702, -0.067314192652702332, 0.025368228554725647, -0.042719848453998566, -0.085276201367378235, 0.065334022045135498, 0.13282549381256104, -0.057203076779842377, -0.007287636399269104, -0.025777414441108704, 0.11460733413696289, -0.095588907599449158, -0.13050170242786407, -0.070471227169036865, -0.085613653063774109, -0.10635188221931458, 0.079194590449333191, -0.0063207447528839111, 0.10582542419433594, -0.043995313346385956, 0.039344385266304016, 0.026188582181930542, -0.023121491074562073, -0.035309016704559326, 0.088515937328338623, -0.1188180223107338, 0.049225360155105591, 0.073126077651977539, -0.078939266502857208, 0.11986184120178223, -0.12783180177211761, 0.078611195087432861, 0.086747467517852783, 0.13472384214401245, 0.020640268921852112, -0.11074967682361603, -0.072924979031085968, 0.06819424033164978, 0.003228604793548584, -0.10745352506637573, 0.085161313414573669, 0.0012534856796264648, -0.12842711806297302, 0.059546485543251038, 0.055586829781532288, -0.058044984936714172, -0.10838543623685837, -0.095350287854671478, -0.12681378424167633, -0.060915052890777588, -0.048365741968154907, 0.097946122288703918, 0.054069563746452332, -0.13677261769771576, -0.12632556259632111, 0.031326934695243835, 0.01330198347568512, -0.011277288198471069, 0.1371724009513855, 0.066910833120346069, -0.078293301165103912, 0.029715999960899353, -0.13505160808563232, 0.05733025074005127, 0.023123949766159058, -0.12254585325717926, -0.10570591688156128, -0.017027698457241058, -0.033273674547672272, 0.041855424642562866, -0.058359719812870026, 0.029648274183273315, -0.019639894366264343, -0.065981432795524597, -0.077077820897102356, -0.07154371589422226, 0.082484588027000427, 0.037616237998008728, 0.04767020046710968, -0.027038231492042542, 0.005176052451133728, -0.08517436683177948, 0.067987695336341858, 0.0030198991298675537, -0.096446134150028229, -0.021217398345470428, 0.099255114793777466, 0.031892508268356323, 0.05944611132144928, 0.062628999352455139, -0.13331982493400574, -0.076206028461456299, 0.011146873235702515, -0.092899367213249207, -0.1364736407995224, 0.05689181387424469, 0.1235063374042511, -0.090869277715682983, -0.11725606024265289, -0.086100228130817413, -0.14057117700576782, -0.02091582864522934, 0.048251062631607056, -0.13303828239440918, -0.1097821518778801, -0.13096831738948822, 0.008442118763923645, 0.028497621417045593, 0.030696019530296326, 0.01418013870716095, 0.0051373988389968872, -0.11735260486602783, -0.058180063962936401, 0.12406072020530701, -0.089993983507156372, -0.049394704401493073, -0.13144619762897491, 0.0058900713920593262, -0.0021245032548904419, -0.030470788478851318, -0.025177597999572754, 0.044402778148651123, -0.045099370181560516, -0.012539759278297424, -0.036478005349636078, -0.078023672103881836, 
  0.12054035067558289, 0.13690789043903351, -0.035477790981531143, 0.05276959016919136, 0.061201766133308411, -0.10653609037399292, -0.12869712710380554, -0.11313356459140778, -0.061304148286581039, -0.017706498503684998, -0.03738119825720787, -0.070167414844036102, -0.037084341049194336, 0.087469868361949921, -0.10052940994501114, 0.034844737499952316, -0.10682334005832672, -0.044891338795423508, -0.013472276739776134, -0.11171576380729675, -0.13334806263446808, 0.075376316905021667, 0.0043781008571386337, -0.013832617551088333, 0.079125076532363892, 0.036130901426076889, 0.14236500859260559, 0.11550754308700562, 0.10469398647546768, 0.11376418173313141, 0.052698314189910889, -0.0066178995184600353, -0.11013023555278778, -0.023535812273621559, -0.027872731909155846, -0.11787903308868408, 0.023017501458525658, -0.11114391684532166, 0.0074419933371245861, -0.080765582621097565, -0.080582894384860992, 0.024983027949929237, -0.14228641986846924, -0.051337879151105881, 0.072101064026355743, -0.028200734406709671, 0.091784119606018066, 0.0014962407294660807, 0.05059114471077919, 0.016200099140405655, -0.052913427352905273, 0.080467976629734039, -0.11851982027292252, 0.0025656642392277718, 0.039235688745975494, 0.1183902695775032, -0.12783759832382202, 0.11260512471199036, 0.031807564198970795, -0.0082242125645279884, 0.039416324347257614, 0.054726921021938324, 0.051910366863012314, 0.034328684210777283, -0.099514923989772797, -0.12738037109375, -0.087798811495304108, 0.13786590099334717, 0.050750568509101868, 0.05276871845126152, 0.095066450536251068, -0.14455913007259369, -0.06493724137544632, -0.019617708399891853, 0.093347847461700439, 0.054831679910421371, -0.14182575047016144, -0.13937941193580627, -0.015692861750721931, -0.026718121021986008, 0.1220841184258461, 0.041038714349269867, 0.041281398385763168, -0.012324335984885693, -0.07206050306558609, -0.034401211887598038, -0.13437660038471222, -0.13656885921955109, 0.12678197026252747, 0.11569065600633621, 0.030746430158615112, -0.1096840500831604, -0.13290406763553619, -0.10849875211715698, -0.010471017099916935, -0.13071933388710022, 0.0088143022730946541, -0.037313885986804962, 0.083968609571456909, -0.12237293273210526, -0.12044595181941986, -0.024411695078015327, -0.043328728526830673, -0.01290140300989151, 0.07371116429567337, -0.025317816063761711, 0.092914730310440063, 0.13913913071155548, -0.011507272720336914, -0.1157715916633606, -0.0052336836233735085, 0.017188791185617447, 0.080341607332229614, 0.11594671010971069, -0.093111217021942139, 0.06420840322971344, 0.078568175435066223, -0.090058416128158569, 0.032597366720438004, 0.030216500163078308, -0.038140065968036652, -0.11939249932765961, -0.068788893520832062, -0.1031905934214592, 0.047212075442075729, -0.0098879700526595116, -0.039316095411777496, 0.11787966638803482, 0.00087800441542640328, -0.025511311367154121, 0.12440690398216248, -0.042571365833282471, -0.10536544024944305, -0.0066597978584468365, 0.06051771342754364, 0.027865687385201454, -0.063033685088157654, -0.083567894995212555, 0.015766538679599762, -0.079607173800468445, 0.12068180739879608, -0.025529274716973305, -0.075490601360797882, 0.090583488345146179, 0.12384022027254105, -0.089197099208831787, -0.10953884571790695, -0.031789582222700119, 0.074344225227832794, 0.037864752113819122, 0.049259182065725327, -0.13639141619205475, 0.027587568387389183, 0.11965397000312805, -0.081153944134712219, -0.072802789509296417, 0.010180474258959293, 0.028628641739487648, -0.049152866005897522, -0.056867025792598724, -0.089434593915939331, 0.1258590966463089, 0.12360133975744247, -0.07288670539855957, 0.11362480372190475, -0.093142621219158173, -0.055968333035707474, -0.10099529474973679, -0.060861431062221527, 0.12906444072723389, -0.0013054010923951864, 0.084203273057937622, 0.095068864524364471, 0.10354901105165482, -0.058619964867830276, 0.095289759337902069, 0.061863802373409271, 0.13493716716766357, 0.082224778831005096, -0.07616618275642395, 0.11692667752504349, -0.082849815487861633, 0.043248534202575684, -0.0076148356311023235, 0.12388988584280014, -0.093597106635570526, 0.086404487490653992, -0.068064406514167786, -0.0054532494395971298, 0.10574328154325485, 0.13937309384346008, 0.072939179837703705, 0.030595667660236359, 0.070351101458072662, 0.071993216872215271, -0.024208243936300278, -0.14031408727169037, -0.091111853718757629, -0.050285708159208298, -0.086697816848754883, 0.11831622570753098, 
  0.049646962434053421, -0.056073479354381561, 0.015342446975409985, -0.12498857080936432, -0.12329952418804169, -0.005609139334410429, 0.10181191563606262, -0.064411066472530365, -0.022398678585886955, -0.049909420311450958, -0.029173176735639572, 0.095584332942962646, -0.096951946616172791, 0.094280615448951721, -0.12270388752222061, 0.10189772397279739, 0.015791626647114754, 0.093624144792556763, 0.11316919326782227, 0.12483386695384979, 0.10224752128124237, 0.11002392321825027, -0.083563126623630524, 0.12303595989942551, -0.04507547989487648, 0.099643178284168243, -0.017707204446196556, -0.091640934348106384, 0.032046325504779816, -0.0045643583871424198, 0.12579354643821716, -0.028151506558060646, 0.080407701432704926, 0.0057456544600427151, -0.060589324682950974, 0.059975754469633102, -0.012560082599520683, 0.055742364376783371, -0.092930614948272705, 0.055862676352262497, 0.098152302205562592, -0.13575170934200287, 0.056979641318321228, -0.019022274762392044, -0.042069502174854279, 0.055700302124023438, -0.039028249680995941, 0.0075387773104012012, -0.13116095960140228, -0.064684025943279266, 0.016244698315858841, 0.11167863011360168, 0.10590274631977081, 0.10509507358074188, 0.090864486992359161, -0.076880328357219696, 0.045881040394306183, 0.10027308762073517, 0.071188345551490784, -0.098102852702140808, -0.034534640610218048, 0.11881192773580551, 0.050298199057579041, -0.023099204525351524, -0.10968662053346634, -0.00085613882401958108, -0.00070337543729692698, 0.020098039880394936, 0.21082022786140442, -0.023726958781480789, 0.12758922576904297, -0.13519816100597382, -0.112221360206604, -0.054385844618082047, 0.098621875047683716, 0.0029534234199672937, 0.058849848806858063, -0.057412806898355484, -0.022341454401612282, 0.098233692348003387, -0.015287721529603004, -0.042862635105848312, 0.1234036311507225, -0.053678371012210846, -0.10934437811374664, -0.11012072861194611, -0.056928817182779312, 0.078461132943630219, 0.11865375936031342, -0.038431756198406219, -0.0038158602546900511, 0.090456977486610413, 0.045793075114488602, 0.10219055414199829, 0.13620831072330475, 0.019983448088169098, 0.011038187891244888, 0.066249549388885498, 0.089210480451583862, -0.029257670044898987, 0.12835174798965454, 0.10242814570665359, -0.070036113262176514, -0.086685381829738617, 0.04190695658326149, 0.08128076046705246, 0.15791001915931702, 0.15484102070331573, -0.11483138054609299, 0.09340396523475647, 0.017819033935666084, 0.047744177281856537, -0.088465116918087006, -0.13605552911758423, -0.0097070299088954926, 0.10683834552764893, -0.0037643187679350376, -0.048100963234901428, 0.044081948697566986, 0.043523345142602921, -0.066493749618530273, 0.060926027595996857, -0.049436762928962708, 0.14264422655105591, 0.074870266020298004, -0.043000712990760803, 0.14948976039886475, 0.030138859525322914, -0.023625712841749191, -0.020865095779299736, -0.022661652415990829, -0.088051602244377136, 0.084357433021068573, -0.093248151242733002, -0.033258181065320969, 0.01613391749560833, 0.019543489441275597, 0.093619987368583679, -0.031941656023263931, 0.078036867082118988, -0.085511423647403717, -0.057987954467535019, -0.025898803025484085, 0.05853203684091568, 0.11843685805797577, 0.0073933242820203304, -0.07702433317899704, -0.025627588853240013, -0.093467876315116882, 0.058181483298540115, -0.10004187375307083, 0.064987443387508392, 0.094149567186832428, 0.14659127593040466, -0.12186122685670853, -0.11878551542758942, 0.074836075305938721, 0.091837517917156219, -0.010403296910226345, -0.12319909781217575, 0.058207321912050247, -0.03645164892077446, -0.094000175595283508, -0.043092779815196991, -0.058279350399971008, -0.095000207424163818, 0.13065142929553986, 0.0012693379539996386, -0.034777414053678513, -0.1186993271112442, -0.11944694817066193, 0.017809160053730011, 0.020978895947337151, 0.037124879658222198, -0.00058248155983164907, -0.1260397881269455, 0.024212900549173355, 0.14187179505825043, -0.043913770467042923, 0.12311696261167526, 0.11503496021032333, -0.072415322065353394, 0.029347578063607216, -0.093784771859645844, 0.12224969267845154, 0.077996961772441864, 0.041431225836277008, 0.026289802044630051, -0.038054883480072021, -0.096159890294075012, -0.11215686053037643, 0.094670392572879791, 0.038342341780662537, 0.11882374435663223, 0.10568985342979431, -0.059983070939779282, 0.079457998275756836, -0.13280113041400909, 0.052341531962156296, 0.12766210734844208, 0.015428846701979637, 
  0.010598024353384972, -0.03329005092382431, 0.13218612968921661, 0.027002792805433273, -0.13843688368797302, 0.10868534445762634, -0.14053484797477722, 0.065139986574649811, -0.04627373069524765, 0.0089413877576589584, -0.092089727520942688, 0.079214543104171753, -0.006244828924536705, 0.087628625333309174, 0.10716790705919266, -0.10634839534759521, 0.032937008887529373, 0.07078581303358078, -0.032941088080406189, -0.016241602599620819, -0.10783690214157104, -0.083146467804908752, 0.11859118938446045, -0.08778073638677597, -0.10057830810546875, 0.039271455258131027, -0.078564748167991638, -0.072735413908958435, 0.12465551495552063, 0.00053935439791530371, 0.025121971964836121, 0.0066239512525498867, 0.042590927332639694, 0.072702601552009583, 0.085584446787834167, 0.091373078525066376, 0.072228901088237762, 0.074140921235084534, -0.13339322805404663, -0.10844738781452179, -0.0038527096621692181, 0.12501420080661774, 0.056228246539831161, 0.071999944746494293, 0.026992017403244972, -0.037628550082445145, -0.10350179672241211, 0.088130824267864227, -0.0055467281490564346, -0.0089947804808616638, 0.069519795477390289, 0.11861602962017059, -0.020296437665820122, 0.063687168061733246, -0.12069817632436752, -0.022881330922245979, 0.11676298826932907, 0.10344834625720978, -0.036036882549524307, -0.038633182644844055, -0.054556015878915787, -0.11387880146503448, 0.013126346282660961, 0.12970371544361115, 0.077337682247161865, 0.005170001182705164, -0.14264757931232452, -0.038049675524234772, 0.0097824754193425179, -0.089490130543708801, -0.033292397856712341, 0.044500444084405899, 0.12606729567050934, 0.048934977501630783, -0.0015550644602626562, -0.068980038166046143, 0.10774777084589005, 0.13871310651302338, 0.068957775831222534, -0.10148584097623825, -0.065918095409870148, -0.11990568786859512, 0.089020222425460815, 0.048107970505952835, -0.12739153206348419, -0.11064888536930084, 0.028487473726272583, -0.038516364991664886, -0.13475148379802704, -0.0062433024868369102, 0.096500374376773834, 0.13282841444015503, -0.054077602922916412, -0.10377006977796555, -0.081695958971977234, -0.019929923117160797, -0.048790913075208664, 0.12285064160823822, 0.023140670731663704, 0.044784359633922577, -0.056787218898534775, -0.001037257257848978, 0.10031111538410187, 0.020769558846950531, 0.075583264231681824, 0.076360352337360382, -0.13314495980739594, 0.072566092014312744, -0.028373455628752708, -0.12121950089931488, -0.10007940232753754, -0.080054774880409241, 0.13361498713493347, -0.072273917496204376, 0.015231183730065823, 0.10742419958114624, -0.068519182503223419, 0.040003769099712372, -0.08891933411359787, 0.080250456929206848, 0.012371755205094814, 0.13150122761726379, -0.051877804100513458, 0.062664419412612915, -0.078221917152404785, -0.1166839599609375, 0.073867172002792358, -0.085382595658302307, -0.055723756551742554, 0.038698147982358932, -0.069336310029029846, 0.12580248713493347, -0.067037574946880341, -0.12724459171295166, -0.0083677703514695168, 0.089934967458248138, 0.041399471461772919, -0.12961424887180328, -0.031180635094642639, 0.011611145921051502, -0.051063466817140579, -0.003083670511841774, 0.12646026909351349, 0.020484313368797302, 0.0031740132253617048, -0.035470794886350632, -0.13668563961982727, 0.054200410842895508, 0.018127307295799255, -0.14315968751907349, -0.038371481001377106, -0.13817405700683594, -0.1212867796421051, 0.004693400114774704, -0.10771088302135468, 0.036384161561727524, 0.12894956767559052, -0.038626424968242645, -0.13154853880405426, -0.10006133466959, -0.10306064784526825, 0.05730944499373436, -0.088074170053005219, 0.013211997225880623, 0.090367771685123444, -0.10715232044458389, 0.10352695733308792, 0.10332033038139343, 0.1028309091925621, 0.0058344090357422829, -0.096898563206195831, 0.020072383806109428, -0.14270851016044617, 0.080214254558086395, 0.079979419708251953, 0.036432292312383652, -0.097234338521957397, -0.10615140944719315, 0.07171330600976944, 0.013292291201651096, -0.13591928780078888, -0.1121678352355957, 0.078169293701648712, 0.019940951839089394, -0.017118088901042938, -0.0075523722916841507, -0.061060052365064621, 0.06662779301404953, -0.013177230954170227, 0.068517729640007019, -0.11766831576824188, -0.087731145322322845, 0.094190776348114014, -0.080806978046894073, -0.091790333390235901, -0.050741445273160934, -0.12640632688999176, -0.03745497390627861, 0.043946065008640289, 0.084358341991901398, 0.013756643980741501, 
  -0.086588405072689056, -0.046552985906600952, -0.11867862939834595, -0.025814440101385117, 0.026111090555787086, 0.0014329692348837852, 0.017786663025617599, -0.13874049484729767, -0.0044201798737049103, -0.0052696149796247482, -0.10918229073286057, -0.068412013351917267, -0.14097873866558075, 0.006415592972189188, 0.095006898045539856, 0.034509170800447464, 0.061759348958730698, 0.07946285605430603, 0.036083854734897614, -0.014555016532540321, -0.08025677502155304, -0.10475710779428482, -0.14121648669242859, -0.069950878620147705, -0.046193014830350876, -0.12180265784263611, -0.10777890682220459, 0.054846618324518204, 0.070008121430873871, 0.005041501484811306, 0.13032415509223938, -0.07125534862279892, 0.11625093221664429, -0.11734991520643234, -0.09633442759513855, -0.14199431240558624, 0.12806764245033264, -0.080252170562744141, -0.10768585652112961, -0.073419235646724701, 0.052360951900482178, -0.11365479230880737, 0.098290078341960907, -0.11358091235160828, -0.04105207696557045, -0.11412796378135681, -0.067228220403194427, -0.01434867549687624, 0.13626196980476379, -0.059559546411037445, -0.074666790664196014, -0.014800379984080791, -0.14481979608535767, 0.035541288554668427, 0.092070862650871277, -0.1000567227602005, -0.095137558877468109, 0.072620764374732971, -0.11180483549833298, -0.059449881315231323, -0.0057852775789797306, -0.0027516621630638838, -0.085315436124801636, 0.062000561505556107, 0.11913454532623291, -0.088446550071239471, 0.031049471348524094, -0.1147569939494133, 0.1171635165810585, 0.041057489812374115, 0.10579520463943481, -0.0088201593607664108, -0.12143314629793167, 0.081426680088043213, -0.13075077533721924, 0.10445139557123184, -0.023689821362495422, -0.11057712137699127, -0.12374453991651535, 0.082106269896030426, 0.021506011486053467, 0.098618552088737488, 0.13561055064201355, 0.074204862117767334, -0.064276255667209625, -0.13391895592212677, -0.0089024342596530914, 0.13457818329334259, 0.021838000044226646, -0.055474977940320969, 0.10066434741020203, -0.048416558653116226, 0.0012562143383547664, 0.094309538602828979, -0.049116361886262894, 0.014482907950878143, 0.053907029330730438, -0.0074487919919192791, 0.04454847052693367, -0.0828375443816185, -0.0085771279409527779, 0.0084083620458841324, 0.00099446496460586786, 0.037604514509439468, -0.0025671524927020073, 0.045717272907495499, 0.0020599742420017719, 0.082251563668251038, -0.078876227140426636, -0.13912677764892578, 0.074576981365680695, 0.088765934109687805, 0.12262072414159775, 0.049411460757255554, 0.11128070950508118, 0.046939875930547714, -0.080521047115325928, 0.074789293110370636, 0.028926599770784378, 0.058449611067771912, 0.051017593592405319, 0.085389390587806702, -0.14505717158317566, -0.011329066008329391, 0.042887520045042038, 0.014091704040765762, 0.075782328844070435, 0.08583473414182663, 0.11395737528800964, -0.064586244523525238, 0.035437248647212982, -0.055254288017749786, -0.062132425606250763, 0.10434182733297348, 0.030361626297235489, 0.12955823540687561, -0.027047516778111458, 0.11259252578020096, -0.12641777098178864, -0.036730114370584488, 0.083767056465148926, -0.099118441343307495, 0.1198800802230835, 0.025441698729991913, 0.052231747657060623, -0.084310427308082581, 0.10522609204053879, -0.11785740405321121, -0.088065311312675476, 0.026632778346538544, -0.0413828045129776, 0.13157278299331665, 0.011455428786575794, 0.1196589395403862, -0.072430133819580078, -0.056964602321386337, 0.11732611060142517, 0.07802601158618927, -0.058481451123952866, -0.010723908431828022, 0.060271535068750381, -0.05729283019900322, 0.031836088746786118, -0.09137900173664093, 0.13130015134811401, 0.010125305503606796, 0.082687735557556152, 0.12894442677497864, -0.095535159111022949, 0.10483866184949875, -0.13878858089447021, 0.048707950860261917, -0.09735812246799469, 0.017596358433365822, 0.13701480627059937, 0.080091878771781921, 0.10097517818212509, -0.082590781152248383, 0.037198368459939957, 0.065827816724777222, 0.090615555644035339, 0.079740092158317566, 0.12258013337850571, -0.010626157745718956, -0.036188751459121704, 0.1128508448600769, 0.026465779170393944, 0.031913783401250839, 0.098149515688419342, -0.12555006146430969, -0.11086776107549667, -0.10774196684360504, 0.027668077498674393, -0.13399063050746918, -0.030768595635890961, 0.11428133398294449, -0.14281602203845978, -0.095612533390522003, -0.077892586588859558, 0.1238182932138443, -0.007161114364862442, 
  -0.082011274993419647, 0.14435850083827972, -0.099002771079540253, -0.10372507572174072, 0.038389503955841064, -0.034598559141159058, -0.12355194985866547, -0.044110886752605438, 0.1222091019153595, 0.085254780948162079, -0.015558929182589054, 0.085544988512992859, 0.08561532199382782, 0.067169457674026489, 0.11534783989191055, 0.10756685584783554, 0.03008970245718956, -0.12369649857282639, -0.10528794676065445, 0.0032509614247828722, -0.056971840560436249, 0.1386597752571106, 0.14038382470607758, -0.052690759301185608, 0.056449078023433685, -0.0060453871265053749, -0.058044638484716415, -0.033691488206386566, -0.087995193898677826, 0.039024386554956436, -0.12379444390535355, -0.13538195192813873, -0.13147005438804626, -0.13164368271827698, 0.13098388910293579, 0.075468793511390686, 0.070130757987499237, -0.12289589643478394, 0.038665473461151123, 0.11826647818088531, -0.067643336951732635, 0.066950440406799316, -0.014850984327495098, -0.078147612512111664, 0.067196100950241089, -0.040252398699522018, 0.065984532237052917, 0.057822145521640778, 0.036797855049371719, -0.1163610965013504, -0.071460030972957611, -0.049028217792510986, 0.018807623535394669, 0.095685496926307678, -0.018707042559981346, -0.063963204622268677, -0.022688258439302444, 0.13415385782718658, -0.079229414463043213, -0.13228426873683929, 0.091272614896297455, -0.04335639625787735, 0.11913611739873886, 0.014570333994925022, -0.049744036048650742, 0.091136686503887177, -0.052873529493808746, 0.022680129855871201, 0.019470999017357826, 0.050530526787042618, -0.04166204109787941, -0.045614100992679596, 0.04428057000041008, -0.11319408565759659, 0.025851922109723091, -0.042614798992872238, -0.065321579575538635, -0.10842034965753555, 0.039486363530158997, 0.026892492547631264, -0.087327077984809875, 0.088373541831970215, -0.04989803209900856, 0.129656121134758, 0.11135111004114151, -0.047419361770153046, -0.09625813364982605, -0.06116214394569397, -0.010652953758835793, -0.089119873940944672, 0.020093029364943504, 0.057792901992797852, -0.080557450652122498, 0.078715406358242035, 0.044972438365221024, 0.080748923122882843, -0.13047319650650024, 0.034726951271295547, -0.0054614171385765076, -0.04677760973572731, -0.12480106949806213, 0.013002289459109306, 0.078729771077632904, 0.04098409041762352, 0.074885860085487366, -0.0072345207445323467, 0.070726208388805389, 0.088834032416343689, -0.12782160937786102, 0.00059059658087790012, -0.030258424580097198, 0.062770694494247437, -0.047371599823236465, -0.014778550714254379, 0.0047822082415223122, 0.037414129823446274, 0.080262057483196259, 0.060140188783407211, -0.048372376710176468, -0.0060599083080887794, 0.081755727529525757, -0.085616238415241241, -0.049187671393156052, -0.062347795814275742, -0.011165115982294083, -0.062076840549707413, -0.0065761771984398365, 0.11675068736076355, -0.0959329754114151, -0.059171330183744431, 0.0098926713690161705, -0.019494881853461266, 0.07856324315071106, -0.038573775440454483, 0.13873203098773956, 0.031664792448282242, 0.12868241965770721, -0.10637699067592621, -0.11598508805036545, 0.0031729708425700665, -0.040703035891056061, 0.12211934477090836, 0.034515708684921265, 0.032597903162240982, -0.13296239078044891, 0.058496631681919098, -0.012569889426231384, 0.12850093841552734, 0.099219776690006256, -0.13618242740631104, -0.0015707721468061209, -0.022595085203647614, 0.1237482875585556, 0.059782817959785461, 0.076097495853900909, 0.1606321781873703, -0.056711524724960327, 0.10692224651575089, 0.088032953441143036, -0.0027154127601534128, -0.086460709571838379, 0.0059390934184193611, -0.057092171162366867, -0.050209280103445053, 0.13510769605636597, 0.13323993980884552, -0.10662359744310379, -0.0012306882999837399, -0.010558245703577995, 0.048746604472398758, 0.12557427585124969, 0.09074932336807251, 0.14676858484745026, -0.044668011367321014, -0.052246350795030594, -0.0036411229521036148, 0.016997851431369781, 0.09838644415140152, -0.075973130762577057, -0.023253545165061951, -0.071175269782543182, 0.063716843724250793, 0.12364267557859421, 0.12609967589378357, -0.13803207874298096, -0.044311653822660446, -0.027954308316111565, 0.0081013822928071022, 0.075021132826805115, -0.12473838031291962, -0.034586083143949509, -0.036364629864692688, -0.058836080133914948, -0.026698002591729164, 0.015977742150425911, -0.094070717692375183, -0.033792976289987564, -0.002346038818359375, 0.083150148391723633, -0.087794765830039978, 0.036786679178476334, 
  -0.10480066388845444, -0.0008192211389541626, 0.0051556229591369629, 0.066367000341415405, -0.065833121538162231, 0.053290605545043945, 0.010008111596107483, 0.038403704762458801, 0.036840513348579407, 0.043311312794685364, 0.12301242351531982, 0.018981337547302246, -0.060769170522689819, -0.046066157519817352, -0.05359332263469696, -0.12909306585788727, 0.068401694297790527, 0.067992940545082092, -0.12904945015907288, -0.068563871085643768, 0.14100906252861023, 0.025114312767982483, 0.096951723098754883, -0.082429282367229462, 0.042923465371131897, -0.0027801245450973511, 0.12589141726493835, -0.12988108396530151, 0.034698367118835449, -0.035541750490665436, 0.060883820056915283, -0.087881863117218018, 0.086860969662666321, -0.10587422549724579, 0.043622910976409912, -0.012146562337875366, -0.080734394490718842, 0.10913541913032532, -0.093700915575027466, 0.035402700304985046, 0.11316820979118347, 0.0059053599834442139, -0.046771571040153503, 0.07204863429069519, 0.13164860010147095, 0.042069539427757263, -0.06203944981098175, 0.087410569190979004, 0.053981885313987732, 0.13560399413108826, -0.11808571219444275, -0.081527024507522583, -0.05409666895866394, -0.11664888262748718, -0.082209333777427673, -0.019334010779857635, 0.12427070736885071, 0.009392082691192627, -0.10182206332683563, -0.039720714092254639, -0.085065513849258423, -0.065242096781730652, -0.12268329411745071, -0.066940918564796448, 0.054089263081550598, 0.038197234272956848, 0.072154775261878967, -0.090753346681594849, -0.10787543654441833, 0.10682603716850281, -0.054573275148868561, 0.019921198487281799, -0.0050935447216033936, -0.053329624235630035, -0.082700997591018677, -0.099480576813220978, 0.029560491442680359, -0.11419189721345901, -0.066641472280025482, -0.10624723136425018, 0.054814592003822327, -0.049697451293468475, -0.05263286828994751, 0.051341444253921509, 0.092188939452171326, 0.092475533485412598, -0.012690052390098572, 0.065402060747146606, -0.0036279559135437012, 0.13154140114784241, -0.0016218423843383789, 0.034315571188926697, -0.13329243659973145, 0.074095994234085083, -0.026127457618713379, -0.049720041453838348, 0.12572827935218811, -0.076169334352016449, -0.083462923765182495, -0.038633279502391815, -0.075088873505592346, 0.074315369129180908, -0.038515165448188782, 0.010148182511329651, -0.10045100748538971, -0.059453107416629791, -0.031292736530303955, -0.027009248733520508, -0.13908226788043976, -0.10152187198400497, 0.092747718095779419, 0.0021517127752304077, -0.014316946268081665, -0.089990079402923584, -0.071319259703159332, 0.040024235844612122, -0.03279450535774231, -0.14110800623893738, 0.12403061985969543, -0.029595725238323212, 0.0083833485841751099, 0.051400616765022278, 0.021525129675865173, -0.14062157273292542, 0.077161714434623718, -0.088078677654266357, 0.12321048974990845, 0.12410381436347961, -0.064441762864589691, -0.099469266831874847, -0.12027566134929657, -0.1061420738697052, 0.03929746150970459, 0.094125926494598389, 0.026447907090187073, 0.069095820188522339, 0.040705040097236633, -0.056984648108482361, 0.057714298367500305, 0.029965132474899292, 0.01343834400177002, -0.091305971145629883, -0.017267264425754547, 0.096701085567474365, 0.079052373766899109, -0.10692368447780609, -0.086522072553634644, -0.0026097297668457031, -0.021545901894569397, 0.081213131546974182, 0.016934528946876526, -0.11666658520698547, 0.11520782113075256, -0.040198065340518951, -0.052249565720558167, 0.081292673945426941, 0.0028658956289291382, 0.05546705424785614, 0.010446354746818542, -0.12686982750892639, 0.08028586208820343, -0.013964131474494934, 0.007442474365234375, 0.12087517976760864, 0.079763203859329224, -0.052812717854976654, -0.10055690258741379, 0.13961434364318848, -0.10593467950820923, -0.051582328975200653, 0.10528993606567383, 0.10618311166763306, -0.051621779799461365, -0.13555800914764404, 0.059319138526916504, -0.14004547894001007, 0.098276808857917786, 0.094483643770217896, 0.13773810863494873, -0.11130347847938538, 0.079268872737884521, 0.049733370542526245, 0.10318474471569061, -0.13448408246040344, -0.022386528551578522, -0.07317013293504715, -0.064130730926990509, -0.072780676186084747, -0.13772918283939362, 0.018803402781486511, 0.12632125616073608, 0.033976256847381592, 0.096443444490432739, 0.053811952471733093, 0.096588358283042908, -0.032689720392227173, -0.050774618983268738, -0.067070521414279938, 0.13367387652397156, -0.058094732463359833, 0.12925311923027039, 
  -0.066690713167190552, -0.060585394501686096, 0.015291358344256878, -0.041004490107297897, -0.13286061584949493, -0.015723006799817085, 0.083732999861240387, -0.11348776519298553, -0.099602192640304565, 0.13680480420589447, -0.039234455674886703, -0.092417322099208832, 0.11678428202867508, -0.028574256226420403, 0.11317044496536255, 0.11225563287734985, 0.098128989338874817, -0.0054000811651349068, 0.0048316456377506256, -0.068741053342819214, 0.040645726025104523, -0.035121731460094452, 0.088766776025295258, 0.05801793560385704, -0.021616309881210327, -0.081144802272319794, -0.061125975102186203, 0.093234241008758545, 0.11968117207288742, 0.083939462900161743, 0.044609479606151581, -0.11649507284164429, 0.058307122439146042, -0.056962687522172928, 0.01385315228253603, -0.074417389929294586, -0.031046057119965553, -0.020897189155220985, -0.11539220064878464, -0.11509650945663452, -0.017913887277245522, -0.11180684715509415, -0.032640509307384491, -0.14195707440376282, 0.046418067067861557, 0.082437939941883087, -0.05365322157740593, -0.0119863236322999, -0.012608768418431282, -0.0076012611389160156, 0.044602919369935989, 0.021809699013829231, -0.10538741201162338, -0.14550110697746277, 0.028312699869275093, -0.14752291142940521, 0.0060603753663599491, -0.0061701708473265171, 0.099476002156734467, -0.12166927754878998, 0.083503574132919312, 0.089539699256420135, -0.054841075092554092, -0.053124580532312393, 0.13128651678562164, -0.044017411768436432, 0.0093577196821570396, 0.061053819954395294, 0.074488744139671326, -0.07326064258813858, 0.091021046042442322, 0.050979208201169968, -0.13217203319072723, 0.13204814493656158, 0.00335652194917202, -0.064078874886035919, -0.038892775774002075, -0.078845314681529999, 0.082000203430652618, 0.12315525114536285, -0.061106953769922256, -0.1199008896946907, 0.10129793733358383, -0.13435445725917816, -0.025743385776877403, -0.078845150768756866, 0.021433208137750626, 0.03769277036190033, 0.1137266680598259, -0.04790651798248291, 0.12981718778610229, 0.11271728575229645, 0.089043065905570984, 0.12366302311420441, -0.028139011934399605, -0.13618655502796173, -0.07951914519071579, 0.045793443918228149, -0.069434888660907745, -0.041468936949968338, 0.010931403376162052, 0.080682344734668732, 0.045556217432022095, 0.083683870732784271, 0.10861966758966446, 0.094180941581726074, 0.13223858177661896, 0.017362257465720177, -0.066158019006252289, -0.058729328215122223, 0.1250738799571991, 0.032186709344387054, 0.085039123892784119, -0.052887346595525742, -0.015681784600019455, 0.086915291845798492, -0.019322216510772705, -0.091740570962429047, 0.077544607222080231, -0.020072834566235542, -0.01570802740752697, -0.071163520216941833, -0.0045295050367712975, 0.089510828256607056, -0.023839201778173447, 0.010548521764576435, -0.10261227190494537, 0.038293726742267609, 0.15341131389141083, 0.13209861516952515, 0.033104673027992249, -0.10084529221057892, -0.083033725619316101, 0.035660699009895325, 0.048633404076099396, -0.18116818368434906, 0.13202790915966034, -0.015427839942276478, 0.074620462954044342, 0.083639033138751984, -0.13887733221054077, 0.081868350505828857, -0.10453338176012039, 0.079547449946403503, 0.022092349827289581, -0.11934518069028854, -0.12035444378852844, 0.012267149053514004, 0.14785568416118622, -0.070170626044273376, -0.11035864800214767, 0.049817252904176712, -0.056667536497116089, -0.030514182522892952, -0.13646741211414337, -0.074488788843154907, -0.040904626250267029, -0.086976058781147003, 0.106101393699646, 0.13130740821361542, 0.13104811310768127, -0.0094125568866729736, -0.041064128279685974, 0.11671481281518936, -0.11782770603895187, 0.002076318021863699, -0.065054856240749359, 0.10546420514583588, -0.035270437598228455, -0.077584616839885712, -0.068997837603092194, -0.024511063471436501, -0.086126111447811127, 0.055012192577123642, 0.10369595140218735, 0.12321148812770844, 0.05636567622423172, -0.099222064018249512, -0.091460108757019043, 0.13018879294395447, -0.11982505023479462, 0.035109907388687134, 0.098362617194652557, 0.09633558988571167, -0.011902792379260063, 0.06907818466424942, -0.052153430879116058, -0.12861122190952301, 0.025687707588076591, -0.10315581411123276, -0.092617683112621307, -0.093155570328235626, 0.078913420438766479, 0.0067812073975801468, 0.046619754284620285, -0.013076436705887318, -0.0744972825050354, 0.012169297784566879, -0.041018933057785034, -0.10132041573524475, 0.065651357173919678, 
  -0.08424842357635498, 0.062959559261798859, -0.10419212281703949, 0.11511480063199997, 0.10820227861404419, -0.094816923141479492, 0.095192000269889832, 0.10155758261680603, -0.037697304040193558, 0.12033809721469879, 0.023896576836705208, -0.09318416565656662, 0.023398144170641899, 0.057218294590711594, 0.062724828720092773, -0.077103801071643829, -0.10108285397291183, -0.059555251151323318, -0.051717229187488556, 0.13134308159351349, -0.073500625789165497, 0.08142872154712677, -0.017331618815660477, 0.088401660323143005, 0.063730858266353607, -0.037769682705402374, 0.13017193973064423, 0.030578453093767166, 0.080720275640487671, -0.091032788157463074, 0.049385596066713333, 0.12920953333377838, 0.13324433565139771, -0.072556458413600922, 0.098871886730194092, -0.076279826462268829, -0.054753467440605164, -0.021781794726848602, -0.0038518093060702085, -0.031011596322059631, -0.0029947641305625439, -0.0010869366815313697, -0.056851372122764587, -0.044948317110538483, -0.086139902472496033, -0.10338585823774338, -0.0093152206391096115, 0.11675403267145157, 0.15444500744342804, 0.063409410417079926, -0.031449556350708008, -0.018931698054075241, -0.10112261027097702, 0.096847221255302429, 0.092830829322338104, -0.057290773838758469, 0.092979267239570618, -0.03469511866569519, 0.10439620167016983, -0.0081822723150253296, 0.039662320166826248, -0.016702841967344284, -0.047382567077875137, -0.02254042774438858, -0.094448737800121307, -0.0051746023818850517, 0.067792780697345734, -0.11200712621212006, 0.19320353865623474, -0.068013191223144531, 0.071598172187805176, 0.12224201112985611, 0.097360134124755859, -0.027418706566095352, -0.048913422971963882, 0.017627010121941566, 0.052121102809906006, 0.029783738777041435, 0.074897646903991699, -0.030622020363807678, 0.082337789237499237, -0.11506791412830353, 0.14851264655590057, 0.11851806193590164, -0.05514850839972496, 0.12566465139389038, 0.025615990161895752, 0.10086990892887115, 0.062435802072286606, 0.15776021778583527, -0.077921368181705475, 0.11187682300806046, 0.014231325127184391, -0.015678675845265388, 0.10604908317327499, 0.052831392735242844, -0.074936710298061371, -0.075551882386207581, -0.11269731074571609, 0.12917989492416382, -0.031140897423028946, -0.011793255805969238, 0.043040890246629715, 0.040127746760845184, 0.005674813874065876, -0.010729978792369366, -0.10454855114221573, 0.0030264230445027351, 0.12860894203186035, 0.10163658112287521, 0.080823183059692383, 0.12700124084949493, 0.019129481166601181, 0.077159501612186432, -0.12091363966464996, 0.11749833077192307, 0.065155811607837677, 0.022236960008740425, -0.12841953337192535, 0.10928268730640411, 0.086926624178886414, -0.140801802277565, 0.095314584672451019, 0.032447457313537598, 0.077134065330028534, -0.00080478237941861153, 0.10957463830709457, -0.10777536779642105, 0.081880487501621246, -0.1017027422785759, -0.0091276410967111588, 0.10053165256977081, -0.0073310011066496372, 0.10046155750751495, 0.036028843373060226, 0.11209937930107117, -0.10816612839698792, -0.021811138838529587, -0.0011586399050429463, 0.021459456533193588, 0.060324046760797501, 0.034353975206613541, 0.12435849756002426, 0.13505882024765015, -0.10298136621713638, -0.024959767237305641, 0.092496782541275024, 0.12486923485994339, -0.082688070833683014, 0.14025819301605225, 0.14835178852081299, -0.0090210894122719765, 0.11836271733045578, 0.11010071635246277, 0.088036037981510162, -0.022141799330711365, 0.095903113484382629, 0.013540820218622684, -0.11012791097164154, 0.034027352929115295, -0.084997937083244324, 0.067031383514404297, 0.062161311507225037, 0.15618953108787537, 0.10507683455944061, 0.052417855709791183, -0.04328412190079689, -0.020936837419867516, 0.13378983736038208, -0.095769882202148438, 0.11760448664426804, -0.049913890659809113, -0.0019367235945537686, 0.13055117428302765, 0.026138894259929657, -0.1061447337269783, -0.014978761784732342, -0.071529760956764221, 0.068052664399147034, 0.15550656616687775, 0.076116949319839478, 0.0025444361381232738, 0.053331829607486725, 0.13362964987754822, -0.048702370375394821, -0.070747561752796173, -0.11046629399061203, -0.071629621088504791, 0.033586539328098297, -0.12000114470720291, -0.12647327780723572, -0.07307790219783783, -0.062262449413537979, 0.12145231664180756, -0.027851106598973274, -0.0064396653324365616, 0.063492327928543091, 0.058094441890716553, -0.011091720312833786, 0.092365145683288574, 0.02457243949174881, 
  -0.040233343839645386, -0.0043442696332931519, -0.033472113311290741, 0.045656874775886536, -0.042606912553310394, 0.13040328025817871, -0.13231950998306274, 0.018480360507965088, -0.10861413180828094, 0.021187782287597656, 0.12034979462623596, 0.0037091821432113647, 0.036265268921852112, 0.11307224631309509, 0.10452587902545929, 0.091698318719863892, 0.00076562166213989258, 0.13958212733268738, -0.041861347854137421, 0.11444428563117981, -0.028124861419200897, -0.077559448778629303, -0.089111104607582092, -0.13972000777721405, -0.025106035172939301, 0.13098180294036865, -0.14069020748138428, -0.051836937665939331, -0.10283520817756653, -0.088763050734996796, 0.10547530651092529, -0.13473963737487793, -0.13678200542926788, -0.1145959347486496, -0.056716099381446838, -0.078606016933917999, 0.013742983341217041, 0.010266736149787903, -0.10435613244771957, -0.045263372361660004, 0.021667793393135071, -0.11467921733856201, -0.098419435322284698, -0.10821036249399185, -0.099923931062221527, 0.033896952867507935, -0.062899798154830933, 0.099184632301330566, 0.09701131284236908, -0.14059500396251678, 0.11453324556350708, 0.13104188442230225, 0.13006079196929932, -0.059599295258522034, 0.023056522011756897, -0.0047377794981002808, -0.041518501937389374, 0.039078593254089355, 0.1246286928653717, 0.059505119919776917, 0.010214418172836304, 0.12479487061500549, -0.015557974576950073, 0.11307746171951294, 0.033855080604553223, 0.013262704014778137, -0.060327932238578796, -0.08917061984539032, 0.062383100390434265, -0.015269428491592407, 0.079927459359169006, 0.0062988549470901489, 0.023631468415260315, 0.086686775088310242, 0.0081707686185836792, -0.13784383237361908, 0.086842402815818787, -0.066848590970039368, -0.13239666819572449, -0.1014903336763382, 0.12363693118095398, 0.030281707644462585, -0.13735620677471161, -0.12583833932876587, 0.063318207859992981, 0.13586059212684631, 0.084764108061790466, -0.12982873618602753, 0.027704522013664246, 0.044603094458580017, -0.13019099831581116, -0.024791233241558075, -0.008008420467376709, -0.091528534889221191, 0.035848543047904968, 0.12899887561798096, 0.10754427313804626, 0.022129356861114502, -0.12847602367401123, -0.12531885504722595, 0.12954333424568176, 0.11214113235473633, -0.011552438139915466, 0.042810797691345215, 0.01817619800567627, 0.083791971206665039, -0.036527492105960846, 0.068972319364547729, -0.13554373383522034, -0.027935482561588287, 0.035696461796760559, 0.06745658814907074, -0.13006238639354706, 0.063297376036643982, 0.10479207336902618, 0.087862879037857056, 0.010170266032218933, -0.093085847795009613, -0.10312402248382568, 0.013817772269248962, 0.086615860462188721, -0.052352197468280792, 0.040554538369178772, 0.084970578551292419, -0.10620585829019547, 0.05653950572013855, -0.13440652191638947, -0.11781501024961472, 0.096695095300674438, 0.11514690518379211, 0.017350450158119202, -0.12967857718467712, -0.0049230903387069702, -0.074219830334186554, -0.11391937732696533, 0.033401250839233398, -0.042281977832317352, -0.031608954071998596, 0.059135645627975464, 0.029797062277793884, 0.055023133754730225, 0.12349972128868103, -0.068457365036010742, 0.13021677732467651, 0.13745954632759094, 0.08106696605682373, -0.0070174336433410645, -0.11386366188526154, -0.095767155289649963, -0.12999734282493591, 0.036860808730125427, -0.084659047424793243, -0.0207199826836586, 0.081709802150726318, -0.031035088002681732, -0.07959417998790741, 0.097062945365905762, -0.015509560704231262, 0.091100499033927917, -0.13624289631843567, 0.11975798010826111, 0.061195254325866699, -0.093299597501754761, -0.0061193704605102539, -0.0602068230509758, 0.01212659478187561, -0.055910177528858185, -0.049896255135536194, -0.018681317567825317, -0.13592539727687836, 0.043337434530258179, -0.04374200850725174, -0.033349581062793732, -0.045167163014411926, 0.14012041687965393, -0.064759053289890289, 0.11546579003334045, -0.072806894779205322, 0.062087655067443848, -0.086443543434143066, -0.0069553256034851074, -0.057998396456241608, -0.040814779698848724, -0.074064485728740692, 0.027331694960594177, -0.058298282325267792, -0.090408384799957275, -0.020569346845149994, 0.10392953455448151, 0.11189636588096619, -0.090131044387817383, 0.015196278691291809, 0.025660872459411621, -0.034026511013507843, -0.063213124871253967, -0.11718624830245972, -0.10645602643489838, -0.077136628329753876, 0.090094491839408875, -0.10571857541799545, 0.042220041155815125, 
